1000 128
254 0.14993204 0.3147817 -0.3550069 0.010735568 -0.113803364 -0.013775613 0.41909677 -0.25242785 0.25303617 -0.064616285 0.23916546 0.34996304 -0.16871178 0.19523261 -0.2922718 -0.050373144 0.14488184 0.06921528 -0.05077827 0.32770118 0.28106564 -0.1258923 0.26324823 0.10866845 0.36032832 -0.05890329 -0.04375156 0.043908503 0.15786545 -0.124082915 -0.07657335 -0.14085653 -0.37680727 0.06866377 0.23228122 -0.063565016 -0.08035356 -0.15263444 0.65875566 -0.15332574 0.18267918 -0.025439868 0.035586514 0.01691592 0.080988385 0.13926558 0.21853998 0.056910172 0.18590017 -0.33914566 0.040105615 0.10782064 0.40782282 0.08869832 -0.1551216 0.27858672 -0.34300545 -0.21935174 -0.1698048 -0.021286765 0.11875044 0.44892666 -0.187055 0.0034530116 -0.03494287 -0.24284318 0.0471504 0.24492775 0.42198673 -0.11510641 -0.143683 -0.10013698 0.02276693 0.13039708 -0.14969514 0.15248193 0.5023692 0.31330234 0.36881816 0.2656266 0.2873851 -0.1500746 -0.18457744 -0.24668065 -0.20768882 -0.008238356 0.1996677 0.14134796 0.15613677 -0.13493343 0.15200123 0.10908256 0.011476769 0.24589601 -0.27377284 0.11052511 -0.53773844 -0.31015342 0.09141541 -0.16911367 0.06751184 -0.25026295 0.16105838 0.36724457 0.15474637 0.23565018 -0.24035402 -0.19017498 0.005948353 0.32420856 -0.286818 -0.1372902 0.56413144 0.08391969 -0.3126244 -0.16208778 0.26886883 0.36070976 0.3759745 0.008222734 -0.39236745 -0.023692986 0.4490393 -0.10302444 -0.3325444 -0.21620983 -0.088308915 0.09196975
827 0.11787663 0.2194295 0.27928537 0.34848166 -0.17383058 0.10671085 0.23897228 -0.04495539 0.38213885 -0.1870917 0.14293255 0.07685713 0.24994805 0.0027073298 0.03249309 0.0554798 0.13000178 -0.16635075 -0.25848022 -0.1972535 -0.07181211 -0.31866223 -0.23219365 -0.011044305 0.18907192 0.016487623 -0.27113542 -0.32459024 0.10740903 0.053534467 -0.33674777 0.43581912 -0.034429334 -0.22327085 -0.2372708 0.11744907 -0.1302905 0.25124064 -0.07706703 -0.30637932 0.16749096 -0.33934927 -0.02685799 -0.2089283 0.16574958 -0.037749197 -0.39353845 0.054953437 0.27587438 -0.20028274 -0.19984825 -0.023399048 0.11314628 0.09245641 -0.1550419 0.009368933 0.055612043 -0.19706368 -0.45977202 0.03019535 0.03281864 0.39177945 0.15198813 0.22696003 -0.44770032 0.19088735 -0.100207366 0.06340291 0.17979635 -0.25644585 -0.1346201 -0.016163792 0.19381382 -0.017353317 0.0447959 0.25610802 -0.022140777 -0.2496553 -0.017260637 0.11651661 0.46637413 0.2865878 0.18041727 0.013306974 0.057413142 -0.15832083 0.25871786 -0.20181754 -0.28427842 -0.25947183 -0.04171415 -0.36826622 0.15483056 0.12502715 0.07762414 0.070069425 0.018792234 -0.0784695 -0.1793396 -0.031286336 -0.22285086 0.27928606 0.16576721 0.39335147 0.0987419 0.16307952 0.064624004 -0.03809912 -0.15324844 -0.1321874 0.062646694 -0.20013116 0.31817842 -0.3563439 -0.04509417 0.23313953 -0.47027627 -0.18996768 0.09394033 -0.028911158 -0.19760464 -0.06813825 -0.19428198 -0.16263834 -0.033621013 0.28276506 -0.29187012 -0.08075429
727 0.1380992 0.20738116 0.26068053 0.29940742 -0.14739352 0.20223042 0.16379154 -0.061603174 0.4294891 -0.19907138 0.101857625 0.060279764 0.28681162 0.049234256 0.029221136 0.03557436 0.02327754 -0.23559567 -0.18927929 -0.24767913 -0.1133817 -0.35502708 -0.1396852 0.03146649 0.14669967 -0.04412763 -0.27419272 -0.45406815 0.09522107 0.033240885 -0.34168676 0.4662648 -0.047904715 -0.21373434 -0.26502854 0.08088604 -0.15211788 0.21865109 -0.11291116 -0.3023176 0.20806375 -0.3674723 0.045238014 -0.23007277 0.15227441 0.011782308 -0.45505896 -0.024303406 0.25596806 -0.25692567 -0.15532073 -0.06410508 0.12457034 0.13443509 -0.11483198 0.0062831556 -0.0069768718 -0.1330114 -0.4084029 0.04096064 0.021539714 0.30765292 0.23037978 0.23275371 -0.3957391 0.13199343 -0.07234698 0.055203095 0.23207074 -0.2304896 -0.12844531 -0.036855616 0.2521355 0.0026734313 0.04625339 0.2951739 0.044130612 -0.24641149 -0.019945173 0.08883295 0.47274044 0.29527944 0.20453146 0.031859893 0.02935688 -0.1273592 0.27053884 -0.27112663 -0.24859993 -0.3004086 0.06354182 -0.38376665 0.1670906 0.09342873 0.07737901 0.12553303 -0.02721659 -0.09210949 -0.23342165 -0.033882983 -0.17824566 0.27386335 0.24915653 0.34279558 0.09552598 0.15333626 0.0728676 -0.05375699 -0.17781667 -0.19121718 0.11766438 -0.1772697 0.3452361 -0.38893738 -0.032109227 0.24532448 -0.40225798 -0.17672671 0.13018748 0.021587621 -0.23672102 -0.024660079 -0.15744926 -0.09360064 -0.03158513 0.23199446 -0.18583182 -0.06269052
802 0.12670298 0.175152 0.28777486 0.31926972 -0.20673093 0.16719173 0.25428066 -0.067436434 0.4189638 -0.28280047 0.12699851 0.057158783 0.23494437 0.046778023 0.018007511 0.03592903 0.078034036 -0.23537563 -0.19603465 -0.2581441 -0.15172213 -0.30084327 -0.18731473 0.04059024 0.21734047 -0.04529597 -0.2508856 -0.34105015 0.113631345 -0.008476112 -0.27383268 0.41672233 -0.09619104 -0.23934777 -0.26110578 0.081311874 -0.07857154 0.2439876 -0.06347647 -0.31892687 0.17859308 -0.28917167 0.034110084 -0.14716403 0.14815693 -0.016904088 -0.4108994 0.06797663 0.31133214 -0.20267378 -0.1786528 -0.0011536195 0.06977402 0.119510524 -0.13479094 0.050483905 0.059198078 -0.19038314 -0.45220658 0.080970295 0.017123792 0.32688412 0.16929545 0.21899925 -0.43411803 0.15435366 -0.13773519 0.08438715 0.2559432 -0.21028939 -0.10917197 -0.018180456 0.17711733 -0.061685104 -0.020838358 0.21354574 0.035613343 -0.2141646 -0.027970267 0.1125917 0.42134857 0.33614427 0.14063455 0.024725124 0.030319953 -0.14705254 0.23505962 -0.27448842 -0.2669839 -0.3036825 -0.035959966 -0.36917177 0.15107436 0.08334263 0.1054676 0.060827073 -0.008293168 -0.09575786 -0.22596131 -0.017278897 -0.23431227 0.28249872 0.19026127 0.40714642 0.073120885 0.09973275 0.090932794 -0.08716777 -0.11942289 -0.14056706 0.029041957 -0.1979042 0.37425196 -0.37765598 -0.014701254 0.28974846 -0.42944705 -0.14983742 0.062435564 -0.03168151 -0.12154453 -0.028938204 -0.21419863 -0.120087646 -0.07873313 0.27818686 -0.23841877 -0.1312022
693 0.1294496 0.22368544 0.1698005 0.30311742 -0.24685492 0.0067460444 0.050650384 -0.2176756 0.54214567 -0.1949076 0.08710522 0.0024443308 -0.010937414 0.094895184 0.09717503 0.027256038 0.02097393 -0.18983836 -0.09302956 -0.15977642 -0.03662154 -0.2849183 -0.15879251 0.114744075 0.21713871 -0.16576497 -0.29894054 -0.3197353 0.09753984 0.052023876 -0.3263242 0.40054467 -0.05423571 -0.07866168 -0.23820804 0.23784935 0.005037616 0.042736426 -0.1194459 -0.33521116 0.24875078 -0.5163757 0.015407248 -0.29242036 0.26745394 -0.04030648 -0.40480945 -0.13267419 0.24477075 -0.20212375 -0.1933264 0.07020094 -0.039673463 0.060747635 -0.20903066 0.06651206 -0.014431355 -0.104345426 -0.28171924 0.03231944 0.1914321 0.18432046 0.20731008 0.13191278 -0.35368684 0.296747 0.04796662 0.12859254 0.1550513 -0.24903856 -0.2621321 -0.008570624 0.247701 -0.084573194 0.093973726 0.42384157 -0.030892031 -0.30820084 -0.100640595 0.10528966 0.44685823 0.22398385 0.26682732 0.12467553 0.15761706 -0.13944647 0.3156689 -0.09788415 -0.20237544 -0.29833144 -0.065853715 -0.35134983 0.18237285 0.22842473 0.056704253 -0.05681236 0.0005377898 -0.06920436 -0.069397755 0.052668422 -0.25361842 0.31522563 0.31834167 0.37325662 0.17650451 0.1565987 0.01005782 -0.07594653 -0.21706198 -0.08670273 0.13403973 -0.2783986 0.4038343 -0.25721177 -0.10539098 0.3195322 -0.38919157 -0.14846006 0.14983219 -0.008306543 -0.237884 -0.033907663 -0.19965905 -0.21953776 -0.073270746 0.24181873 -0.34231967 -0.015207337
630 0.19961525 0.22585885 0.30321166 0.30442417 -0.21081428 0.085714035 0.2554848 -0.07517107 0.400947 -0.20045587 0.13523123 0.08892443 0.28120056 0.03305508 -0.013402102 0.11215382 0.08776434 -0.23797956 -0.26696545 -0.25792915 -0.09222985 -0.34144044 -0.18429862 -0.06204249 0.15371516 -0.10429731 -0.30490613 -0.40543893 0.086018085 0.001365493 -0.3154625 0.47727782 0.0018560857 -0.23256688 -0.22720177 0.15497972 -0.15365522 0.24077936 -0.056995455 -0.24001062 0.16428809 -0.32549772 0.0019359398 -0.18960035 0.19413419 -0.026482569 -0.37706414 0.031035906 0.24576557 -0.23959458 -0.15767731 -0.028363978 0.056875706 0.09568615 -0.17202705 -0.021919735 0.0234905 -0.14083017 -0.3367171 0.06548501 0.014519713 0.32189775 0.14727823 0.24074425 -0.4520213 0.12638982 -0.13540207 0.06675377 0.2053394 -0.2431405 -0.14393002 -0.03300351 0.2592137 0.0006207487 0.057044666 0.3033873 0.006149719 -0.27353823 0.037881672 0.13406794 0.40237337 0.29905957 0.16695873 0.027674453 0.07951508 -0.14803977 0.26496348 -0.27004302 -0.22336586 -0.23367728 0.024080193 -0.36215302 0.16917244 0.08292835 0.13889721 0.015046132 -0.015749568 -0.15664923 -0.1842753 -0.048741154 -0.18763214 0.29216087 0.231351 0.38008273 0.10295507 0.17880805 0.096496575 -0.062492084 -0.17088138 -0.24368386 0.020824121 -0.2806366 0.30296773 -0.39040944 -0.08032698 0.24016975 -0.42479375 -0.17278408 0.09596554 0.0053273006 -0.18926185 -0.054889046 -0.16761419 -0.11032392 0.016062358 0.33493486 -0.24660733 -0.019261073
407 0.13010864 0.23829764 0.18780477 0.288301 -0.2671492 0.037183084 0.121300615 -0.13372532 0.5277303 -0.25086302 0.034722403 -0.010184489 0.17707218 0.08568508 0.081375934 0.045394506 0.017929062 -0.17051591 -0.06059995 -0.24131742 -0.05122482 -0.24877661 -0.14937039 0.081874035 0.0979834 -0.13593842 -0.26729515 -0.32427785 0.1825478 0.039033648 -0.435575 0.38272813 -0.06988679 -0.1389273 -0.24780637 0.19338849 -0.008769215 0.12911014 -0.11608161 -0.31950685 0.29498193 -0.5015394 -0.030739823 -0.28785768 0.22158095 -0.06949853 -0.4292657 -0.047186106 0.25430912 -0.10948516 -0.16696973 -0.012864509 -0.015920134 0.15239224 -0.17599285 -0.052826762 0.0334825 -0.11531819 -0.2424128 0.05541207 0.16832185 0.31895554 0.19767359 0.1479792 -0.34479204 0.23480648 -0.044076297 0.12042412 0.18698877 -0.31356472 -0.25353616 0.032410234 0.23936677 -0.010250468 0.018745031 0.3565137 -5.1102004e-05 -0.20146464 -0.09810769 0.12491248 0.44878036 0.23027666 0.19924316 0.056911387 0.10233183 -0.1319437 0.27850977 -0.13444394 -0.15175566 -0.34074092 0.016672261 -0.38132632 0.09354557 0.21618156 0.060339015 0.013970501 -0.059375484 -0.082721144 -0.09356772 -0.052386247 -0.17875336 0.27762803 0.27390203 0.32871512 0.1151959 0.16328652 0.013261983 -0.029861035 -0.19474687 -0.1801696 0.13370037 -0.2267006 0.47929764 -0.37880883 -0.041474264 0.28700516 -0.39388925 -0.132532 0.06520715 -0.051224217 -0.23610105 -0.017956601 -0.11411719 -0.22387765 -0.041757986 0.25076762 -0.348832 -0.09785983
794 0.10110511 0.23428622 0.30551106 0.29192874 -0.1969527 0.05324685 0.19589955 -0.11671726 0.50982875 -0.21461679 0.06316852 -0.04683577 0.22327612 -0.020683607 0.09324717 0.037428733 0.07665671 -0.1562472 -0.10039034 -0.22710624 -0.009763326 -0.31017566 -0.09252381 0.08926926 0.17226273 -0.1503197 -0.2575363 -0.3464175 0.09260429 0.08757353 -0.34245947 0.3938686 -0.06558892 -0.14077541 -0.23105752 0.15908371 -0.0519549 0.19298218 -0.115236826 -0.2888283 0.24022464 -0.4754996 -0.025309393 -0.26909104 0.20275839 -0.09243536 -0.3744702 -0.087263644 0.2575789 -0.13684098 -0.15632927 -0.06494838 0.10409294 0.08625993 -0.14542556 0.020874418 0.03217129 -0.16116829 -0.29315904 0.09446216 0.12532863 0.3585548 0.22848697 0.1755606 -0.35114884 0.21913274 -0.088831514 0.11698552 0.116900176 -0.30770802 -0.16868438 -0.03392101 0.22341773 0.099210046 0.047956057 0.309998 0.007418023 -0.19411801 -0.042869452 0.10230939 0.43734285 0.20665218 0.14211453 0.07673944 0.06691148 -0.12258417 0.24803507 -0.11903689 -0.18556635 -0.3145358 0.012088225 -0.29035956 0.11438244 0.17505534 0.119729646 0.07537594 -0.057994865 -0.029263971 -0.18741219 0.042256866 -0.24608785 0.2690859 0.2865394 0.3597749 0.071108766 0.12818965 0.0480541 -0.04535799 -0.19320214 -0.07598339 0.13932775 -0.29659307 0.37463874 -0.29322368 -0.04265135 0.29232642 -0.4234726 -0.13572155 -0.018703839 0.023883682 -0.3105089 -0.03572588 -0.18742491 -0.1691613 -0.01719877 0.26991245 -0.3346997 -0.10383384
396 0.10597122 0.09717717 0.31065476 0.21146533 -0.118154645 0.19200101 0.15969636 -0.11267666 0.45795447 -0.17529772 0.075969264 0.053008392 0.28170517 -0.052471768 0.09873076 -0.021756703 0.07664486 -0.11925278 -0.20639676 -0.27304694 -0.06678613 -0.3680987 -0.15069525 0.023894373 0.1819154 -0.04967196 -0.20102902 -0.34168562 0.1533814 0.023477182 -0.33919662 0.38044825 -0.067954525 -0.2974825 -0.2245309 0.13155241 -0.1456842 0.25641218 0.010194461 -0.196629 0.23585968 -0.44342798 0.03915285 -0.3013501 0.1899669 -0.020490251 -0.32788208 0.08300909 0.34760487 -0.12787288 -0.21187803 0.030449606 0.07029483 0.05577026 -0.19126453 0.035143457 0.06442373 -0.09189748 -0.4267277 0.1506487 -0.06886215 0.37960756 0.08717298 0.21947132 -0.35439876 0.22225182 -0.14361861 0.14800791 0.21972086 -0.21692246 -0.24153104 0.0035440216 0.2441973 -0.018860284 0.082882896 0.26766983 -0.045113813 -0.18564981 -0.041534275 0.069018334 0.4504991 0.3102509 0.08479697 0.04165261 0.0499125 -0.17294419 0.2556935 -0.18473904 -0.24095239 -0.28997496 0.028616903 -0.23727418 0.22801778 0.21327575 0.019367909 0.05096326 -0.025833495 -0.047198907 -0.22600332 0.013921617 -0.32028213 0.29168403 0.27361968 0.35006616 0.050799362 0.13767096 0.14047718 -0.15915862 -0.065494426 -0.10988022 0.054194894 -0.28513777 0.43306172 -0.28187644 -0.049465284 0.28859898 -0.45930767 -0.24758095 0.049289346 -0.078272335 -0.1837536 -0.008615389 -0.22853725 -0.13671212 -0.09656375 0.28899536 -0.33627164 0.050639875
506 0.15056695 0.11850494 0.3035205 0.3354253 -0.15175408 0.15825501 0.2517109 -0.07827309 0.46559668 -0.21488656 0.15286694 0.113970526 0.2297353 0.07921029 0.007248607 0.046884693 0.077619925 -0.13834663 -0.24721064 -0.27596924 -0.12008125 -0.319274 -0.25288957 0.021126967 0.25142998 -0.037843574 -0.2533573 -0.3171037 0.09784937 0.030151743 -0.30856138 0.43767658 -0.058899023 -0.1481777 -0.20142955 0.03144296 -0.18112332 0.20949814 -0.044650216 -0.21095113 0.13266934 -0.274829 0.013579738 -0.22454298 0.15636954 0.004347538 -0.37778342 0.02453558 0.26674068 -0.19199815 -0.19085349 -0.0098354295 0.12449707 0.10632323 -0.15059997 0.070709035 0.09233036 -0.13220675 -0.3469068 0.08639561 0.023361003 0.33295664 0.14900044 0.176606 -0.44422677 0.16553096 -0.12903672 0.09405198 0.21805684 -0.29486543 -0.17195712 -0.009817508 0.18438071 -0.06854077 0.12039383 0.27482262 -0.0136252465 -0.25010633 -0.04426143 0.07736506 0.49711955 0.44673952 0.17901278 -0.01659593 0.05227017 -0.13797554 0.24550277 -0.34348056 -0.25168416 -0.2696523 0.016432831 -0.33789542 0.20908393 0.12013039 0.08963058 0.0012259386 -0.04284738 -0.08969191 -0.21129183 -0.050455987 -0.26078126 0.33210537 0.15780292 0.42280102 0.033415724 0.1087579 0.05454746 -0.06099822 -0.12775448 -0.1502234 0.052505113 -0.24621014 0.33626673 -0.3207961 0.04449635 0.24779397 -0.4356412 -0.26311058 0.12895536 -0.08720321 -0.208581 -0.036218457 -0.19850788 -0.19981954 0.0002934954 0.30395374 -0.2741096 -0.029355312
447 0.076961145 0.15483779 0.3170997 0.27156046 -0.14521548 0.10383296 0.17500319 -0.02840899 0.48502046 -0.21460645 0.0793127 0.019557195 0.24252342 -0.015243158 0.1011703 -0.051165953 0.08843011 -0.19892351 -0.21382159 -0.14474545 0.040121187 -0.35516635 -0.22179505 0.09672705 0.19956098 -0.1306527 -0.27623606 -0.4169664 0.17790334 0.08092934 -0.37599397 0.3599911 -0.11973929 -0.2335501 -0.19691621 0.24612504 -0.12352825 0.2267562 0.010607885 -0.19628166 0.14554681 -0.5073671 0.11115751 -0.260069 0.2997679 -0.05141269 -0.20175773 0.005797575 0.35136557 -0.20372753 -0.24918984 0.029642293 0.06048502 0.10484355 -0.15411939 -0.0013662368 0.2200855 -0.113808386 -0.42372304 -0.02036544 0.04124089 0.36365134 0.16227974 0.21144928 -0.27719137 0.3139764 -0.03802758 0.19859089 0.11204711 -0.29847005 -0.22613609 -0.0863009 0.29354468 0.14487533 0.06154382 0.31281227 -0.007431931 -0.24070205 0.031111361 0.0570737 0.49452803 0.24922316 0.1266545 0.074369885 0.17877485 -0.16542962 0.27093723 -0.102327354 -0.12647355 -0.2679138 0.014685494 -0.2197211 0.15104921 0.17280035 0.118859716 0.10429639 0.05126432 -0.10821619 -0.25286317 -0.061891723 -0.27372548 0.25776723 0.24368237 0.28309536 0.038117845 0.1672668 0.06666878 -0.122791894 -0.11734996 -0.14885332 0.12115242 -0.24945375 0.4737485 -0.29812214 0.050514966 0.21300766 -0.37314874 -0.1511581 0.09936682 -0.021178767 -0.24547634 0.0017470119 -0.23648255 -0.17802902 0.021057663 0.22264367 -0.27911305 0.03272001
428 0.14149004 0.1802979 0.26151747 0.35656592 -0.1390002 0.1728952 0.23161878 -0.08994318 0.4394655 -0.19923659 0.14652516 0.06535646 0.23937795 -0.0045132474 0.05140675 -0.012889072 0.09388883 -0.2046499 -0.25259367 -0.2672052 -0.14185014 -0.32670325 -0.21760152 -0.009068392 0.18203956 -0.0116752535 -0.29345018 -0.34505308 0.07901649 0.01743207 -0.20872357 0.41934124 -0.074080735 -0.2063063 -0.24808547 0.07076521 -0.14193937 0.25007156 -0.11886791 -0.30108145 0.23847713 -0.26640248 -0.014749196 -0.18578596 0.12574613 -0.03090159 -0.4403857 0.016116302 0.29624847 -0.2327043 -0.15385357 0.0018193304 0.084782325 0.13218254 -0.102651104 0.07820782 0.078980885 -0.13993964 -0.4179257 0.09659467 -0.0009937424 0.29240045 0.09635525 0.25004545 -0.4590873 0.088138014 -0.17398538 0.06603784 0.21325926 -0.22049476 -0.042719197 -0.079802945 0.2298549 -0.041308615 0.063448705 0.27572116 0.027937328 -0.23157665 -0.04118906 0.10369116 0.44503868 0.32769933 0.17731881 0.026181396 0.053447735 -0.10621298 0.26034665 -0.25842592 -0.32242024 -0.27918705 -0.016911589 -0.36772987 0.14299783 0.14475548 0.10377902 0.06440007 -0.088876635 -0.061942123 -0.16184604 -0.015964223 -0.21873257 0.30179492 0.15711279 0.41880915 0.020672582 0.093996994 0.06945004 -0.037756067 -0.13205573 -0.13673587 0.022626031 -0.20266268 0.3514427 -0.4139808 0.016350992 0.28521505 -0.39850327 -0.17089187 0.06084265 0.03845886 -0.14978355 -0.057722315 -0.18697742 -0.15616813 -0.03523053 0.29810733 -0.24918345 -0.023598172
685 0.106796265 0.165322 0.3004057 0.3559001 -0.2326795 0.07542295 0.168427 -0.08766155 0.4227779 -0.26049417 0.123581186 0.09518601 0.2339253 0.066272035 0.0995899 0.0069078445 0.11652863 -0.20076498 -0.1903238 -0.23207009 -0.06399849 -0.34320346 -0.18636136 0.012072973 0.20471886 -0.11500495 -0.25197205 -0.35380635 0.070803046 0.029257838 -0.3468383 0.40548944 -0.059465475 -0.19073147 -0.25072482 0.118669555 -0.13839382 0.14081454 -0.06090632 -0.2613443 0.27141705 -0.39061755 -0.0658605 -0.20046741 0.1397292 -0.04752744 -0.39100268 0.00019968752 0.29123667 -0.20661046 -0.18916926 -0.021135962 0.028782044 0.14257877 -0.17999278 0.059471197 0.046614133 -0.2060165 -0.32488096 0.09792024 0.14604415 0.34730422 0.1835912 0.23857792 -0.42118216 0.21391714 -0.10082424 0.09530957 0.22005665 -0.2432843 -0.124519326 -0.0183421 0.23145416 0.009240363 0.064858966 0.2380165 0.04595207 -0.2924724 -0.04004665 0.1492538 0.43163916 0.2468746 0.17711389 0.033383396 0.026733808 -0.1317307 0.28916466 -0.22871618 -0.2927684 -0.30335775 0.042430427 -0.3197192 0.10208441 0.23560536 0.12961866 0.078073926 0.03125514 -0.15058647 -0.17840093 -0.035209596 -0.21476208 0.32758042 0.27423984 0.39130104 0.08119 0.112213455 0.022138482 0.0042309794 -0.14450476 -0.1955979 0.083326675 -0.169717 0.37733528 -0.32849616 0.0049260105 0.18158536 -0.54537964 -0.20252165 0.035637803 0.0296025 -0.15686658 0.0011021374 -0.1714935 -0.17657872 0.013301116 0.24334669 -0.2693528 -0.13003486
328 -0.04619331 -0.8757352 0.46502495 0.19655445 -0.23814973 -0.06811931 0.48502678 0.12118825 0.06359506 0.30333552 -0.15778518 0.37988684 -0.47020176 -0.13080887 -0.11940648 -0.11048306 0.19926855 -0.54685056 -0.21042483 -0.006801806 0.35962564 -0.14214434 0.29149443 0.33451828 -0.2775165 0.57132477 -0.42199138 -0.22501454 -0.09707402 0.15270658 0.046181306 0.026062641 0.39616114 0.06776881 -0.27921543 -0.55776066 0.13046055 -0.09424822 0.12455228 -0.7827849 -0.0472848 -0.41744357 -0.17828527 -0.055649564 0.0211857 0.0487846 -0.26251525 -0.26826093 -0.102760874 -0.12764114 -0.35279933 -0.0958634 0.17970937 0.20282203 0.014398471 0.62377095 0.3721551 0.07038783 -0.30744717 0.03283579 0.049347468 -0.22490376 -0.19717595 0.15045345 -0.22378822 -0.37026256 -0.36568263 0.39321506 0.7003589 0.2269492 -0.34793353 0.01740399 0.007680969 0.37189016 -0.017572995 0.7411674 0.33499053 0.50816673 0.52453595 0.33101904 0.3428251 -0.10941746 0.10447088 -0.40746576 -0.30055305 0.07684035 0.28785032 -0.24908288 0.41200414 0.012881641 0.347956 0.027434312 -0.29241228 -0.07678417 -0.04059293 -0.04716413 -0.9659193 0.43109155 0.8242705 -0.18555492 0.18362401 0.22183828 -0.30732855 0.048050713 -0.05238042 -0.190327 0.1133529 -0.19844285 -0.0669917 -0.2663147 0.2789056 0.19470084 0.22405481 -0.22940937 0.14971545 0.24974465 -0.2883926 0.043953232 0.23790811 0.13896388 0.39947915 0.122835755 -0.207706 -0.37661105 -0.3454227 -0.06754391 -0.08798458 -0.15351024
606 0.13081175 0.21178092 0.31880227 0.26350605 -0.21095124 0.1695213 0.32604086 -0.0801439 0.44503713 -0.35909846 0.091310464 0.061035637 0.31377158 0.098999254 0.06262142 0.0017190019 0.023371607 -0.25808665 -0.21627976 -0.29148617 -0.110075355 -0.3448155 -0.12759835 0.08065405 0.14591028 -0.15617737 -0.28009897 -0.39050335 0.0314848 0.041805442 -0.26205596 0.4336069 0.013538989 -0.24383605 -0.20170349 0.028713778 -0.1742621 0.1837395 -0.050859608 -0.2898106 0.19475025 -0.4040409 0.017330565 -0.18261738 0.16531499 -0.00096537045 -0.30304983 -0.051390007 0.25336686 -0.17752472 -0.1952718 -0.0872659 0.06561365 0.08797842 -0.11404432 0.11147172 -0.012014964 -0.19059823 -0.26177156 0.08953641 0.10982203 0.2848469 0.19561389 0.07668539 -0.38903487 0.15406834 -0.12617975 0.11747867 0.23297198 -0.23907308 -0.06727143 -0.08520902 0.28376237 0.08986911 0.007504416 0.18088906 0.10338321 -0.32080746 0.04374195 0.068055354 0.46314484 0.28574365 0.15222031 0.03378958 -0.03527583 -0.12074987 0.256633 -0.24882707 -0.2280906 -0.2631168 0.030211778 -0.33789417 0.10195743 0.1599623 0.1854096 0.02271328 0.010093992 -0.14533661 -0.2132027 -0.04172552 -0.3015965 0.2528774 0.15036027 0.3814542 0.09300569 0.09522896 0.012717359 -0.17500293 -0.111431606 -0.1671961 0.19972496 -0.23931637 0.38781202 -0.2355976 0.04713453 0.26773533 -0.47600576 -0.1974271 0.040320776 -0.0034489117 -0.23012166 -0.07374183 -0.18221919 -0.1386177 -0.05674169 0.31717977 -0.2212716 -0.07891299
677 0.18311438 0.4253422 0.1656508 -0.039144263 -0.5279212 0.106846884 0.091532946 -0.16317923 -0.24438827 0.10210557 0.22633758 0.59890044 -0.14177811 0.32575363 0.08973938 0.15665095 0.5097195 0.013014894 0.24917658 0.31288397 0.10733404 -0.18071164 -0.10861294 -0.09421252 0.81378484 -0.039458007 -0.24938798 -0.32049254 0.06964654 -0.3573713 0.09984867 -0.1513873 -0.12160469 0.023977349 0.3071932 -0.3432099 -0.22277641 -0.09243423 0.23203689 0.061196756 0.06844642 0.06541726 -0.31342152 -0.19624658 0.058069695 0.5013697 0.009784348 0.35163727 0.370663 -0.120607615 -0.035666306 -0.15242185 0.64058965 0.088362336 0.07890843 0.50118244 -0.08646599 -0.13714324 0.026140759 -0.2752168 0.0014089632 0.15933286 0.07943824 -0.09203231 -0.32587418 -0.35217124 -0.28510916 0.06300141 0.23949148 -0.078733444 -0.3277978 0.2160702 -0.045875162 0.5010326 -0.020280816 -0.014511123 0.53667265 0.2965962 -0.04926951 0.05111713 0.3238344 0.0023171364 -0.055595975 -0.18747807 0.15451394 0.27364644 0.31236145 0.23356296 0.1465906 -0.021094 0.023512566 -0.14790256 -0.26358792 -0.011562022 0.0149262 0.27294233 -0.23716712 -0.2939158 0.27002195 -0.14250156 -0.26902315 -0.062241063 0.036422834 -0.18576466 0.38468912 0.2401578 -0.22200546 -0.11721164 0.23708338 0.3392597 -0.1529142 0.09372575 0.35187763 -0.19921073 -0.28769994 -0.04910696 0.027797371 0.21337368 0.3645985 -0.008545774 -0.4661582 -0.011895461 0.53302413 0.036091276 -0.17698097 0.15762325 -0.1897397 0.08578392
730 0.15498747 0.40063328 0.12121936 -0.08636867 -0.49734467 0.06034494 0.13585798 -0.17384094 -0.18742877 0.071126804 0.2425143 0.6048386 -0.1615424 0.29740053 0.1264396 0.17789443 0.5933921 0.02411814 0.23864417 0.23998827 0.14002821 -0.12562071 -0.16579692 -0.053553943 0.86818516 -0.06672168 -0.21080406 -0.26202947 0.033247683 -0.34037992 0.1447487 -0.19063234 -0.16467363 0.08977583 0.41506538 -0.29825422 -0.2143293 -0.060146052 0.17886801 0.058222413 0.18858673 0.025690256 -0.41723934 -0.19483961 0.0030000072 0.4404242 0.041272104 0.34696046 0.29936612 -0.08962012 -0.012850709 -0.16199586 0.70553184 0.01679179 0.057430696 0.5108816 0.021726165 -0.08809788 0.09530621 -0.29641774 -0.032202076 0.17306745 -0.048760198 -0.11386016 -0.41748634 -0.38868973 -0.30398563 0.011363625 0.26686504 -0.095919855 -0.28988257 0.23729193 -0.021593478 0.48733553 0.068280466 0.029808102 0.4866553 0.34432608 -0.14193663 0.06978301 0.35397133 0.058317102 -0.1398188 -0.09602719 0.1528419 0.22070254 0.40637666 0.313842 0.1496326 -0.049313948 0.05174792 -0.12190611 -0.24853775 0.015018206 0.01742804 0.26762137 -0.28915888 -0.24271019 0.24485162 -0.14448197 -0.2541633 -0.11659356 0.042312 -0.15008022 0.30864593 0.31071773 -0.28843078 -0.15222426 0.25406504 0.32016686 -0.19496612 0.04842664 0.35507038 -0.24930243 -0.20189546 -0.084739804 0.04952533 0.18899341 0.37432727 -0.045547277 -0.5042805 0.008788768 0.5390165 0.030469697 -0.2681475 0.21345624 -0.1691777 0.19426884
782 0.06724388 0.15493377 0.27224797 0.30655003 -0.17444947 0.108728394 0.1843419 -0.08800516 0.40249178 -0.25432017 0.12583512 -0.012969891 0.26779845 0.0045846435 0.07562089 0.089580774 0.05433677 -0.18558207 -0.2427645 -0.20242445 -0.11635119 -0.30306977 -0.13618593 0.07182911 0.2121815 -0.09942592 -0.22817428 -0.33562073 0.13737418 0.08609484 -0.3377683 0.4741584 -0.09445828 -0.24833122 -0.16354445 0.21819785 -0.18883887 0.2595306 0.0067185527 -0.25442055 0.22386113 -0.41188246 0.08528461 -0.2925624 0.31014627 -0.023106266 -0.34539104 0.01859581 0.36527142 -0.090064816 -0.18787548 0.044939745 0.045123424 0.114045866 -0.11183835 0.029024377 0.07318895 -0.14526425 -0.3439493 0.062524356 -0.025066236 0.33731988 0.12302833 0.16235241 -0.29869238 0.25631684 -0.08573954 0.12978913 0.09049831 -0.30785266 -0.20067522 -0.1010403 0.28227162 0.03712655 0.020280723 0.29492554 0.0021857515 -0.11849012 0.010296016 0.10580722 0.4553833 0.29760453 0.15883245 0.0899411 0.061767936 -0.16668536 0.2551723 -0.18050374 -0.19650319 -0.2803657 0.05802703 -0.27926257 0.1431132 0.123281635 0.07712881 0.02192363 0.030654347 -0.11210635 -0.17085399 -0.024086278 -0.23759139 0.3057691 0.23962712 0.3411404 0.005434854 0.14911005 0.13704884 -0.12445269 -0.14751072 -0.118447565 0.1518926 -0.25807747 0.46854782 -0.3187152 0.015917638 0.25250322 -0.39221963 -0.14062184 0.06521418 -0.029176565 -0.2200272 -0.0717437 -0.17676724 -0.13065086 -0.051570766 0.27143875 -0.28207675 -0.052124538
810 0.15189256 0.49981314 0.112998895 -0.11065508 -0.5525328 0.1379976 0.106297895 -0.15771362 -0.16932765 0.014635193 0.23807764 0.6391334 -0.11766805 0.2555558 0.19335866 0.1814575 0.56345326 -0.07922757 0.23925659 0.2828006 0.07537714 -0.19624443 -0.16861375 -0.10106702 0.8811139 -0.013818364 -0.13805366 -0.1919868 -0.0344308 -0.40868047 0.17722687 -0.17514995 -0.17657278 0.035553984 0.42424607 -0.28674507 -0.19059418 -0.099240065 0.1851207 0.0103334375 0.14050038 0.00023236797 -0.36227393 -0.16376927 0.080938645 0.5425716 -0.015253779 0.4306069 0.3924937 -0.0462991 -0.11166953 -0.09763692 0.59465176 0.0036817072 0.10561836 0.45071423 -0.04323056 -0.085981816 0.09911564 -0.27687523 0.027889732 0.19756177 0.058004595 -0.18289387 -0.33732426 -0.38077992 -0.26349196 0.1403645 0.24874729 -0.09857347 -0.29790172 0.25609004 -0.035034176 0.57054824 0.08224461 -0.021107186 0.43254575 0.3246172 -0.06417784 0.10278024 0.36972743 -0.014579916 -0.09981123 -0.10934245 0.08328033 0.1488354 0.32731035 0.27489564 0.15124315 -0.03213768 0.049893167 -0.07789854 -0.21892887 0.011197742 -0.015393451 0.26967612 -0.25946692 -0.29202312 0.22135733 -0.16888453 -0.36603355 -0.06588746 0.06803142 -0.17657365 0.39600706 0.20416492 -0.24806547 -0.13668038 0.20604157 0.24871251 -0.0742835 0.06728335 0.36629722 -0.20169757 -0.18478386 -0.09908077 0.06274883 0.23369913 0.2956114 -0.14539786 -0.46808407 0.016665377 0.54082876 0.05028101 -0.32441205 0.23011929 -0.19281478 0.1085118
866 0.15352559 0.4880065 0.123654775 -0.02731903 -0.50851244 0.12764688 0.100012854 -0.18722647 -0.14218564 -0.007259634 0.19538581 0.5982487 -0.21863177 0.2614892 0.123907365 0.1777177 0.5862427 -0.028370677 0.25853962 0.21596874 0.08895822 -0.11312555 -0.17995702 -0.073856235 0.77047986 -0.04438807 -0.18319105 -0.2957476 0.014893795 -0.33308747 0.13552743 -0.21918546 -0.12521179 0.051824406 0.3644549 -0.39220753 -0.18246229 -0.09417102 0.2872708 0.06927633 0.12473874 -0.031343944 -0.3425182 -0.07141456 0.0048472695 0.4786889 0.027080486 0.3869231 0.31912336 -0.047332514 -0.0122252265 -0.14262536 0.6065523 0.045054104 0.09835602 0.5860723 -0.059199512 -0.11752118 0.099403925 -0.28823668 -0.012239783 0.18280472 0.034384813 -0.110750094 -0.3045649 -0.34917656 -0.25959647 0.116441905 0.30512944 -0.101946615 -0.30112147 0.24652168 -0.106741324 0.5480115 0.027201725 -0.06950515 0.48010054 0.30923346 -0.039553102 -0.013223719 0.35631874 0.05289449 -0.09025613 -0.13249037 0.058164977 0.19994521 0.4017437 0.18230246 0.20054446 0.00055324356 -0.029840235 -0.09177444 -0.19195634 0.0369143 0.009640542 0.25148928 -0.27013272 -0.25771195 0.16556162 -0.08678756 -0.30284268 -0.1490816 0.032412305 -0.20602709 0.41382092 0.29817432 -0.2673024 -0.15228403 0.26887432 0.33704352 -0.17290409 0.094584264 0.39291102 -0.3120466 -0.24908431 -0.060743317 -0.024696745 0.31521964 0.36191326 -0.06006958 -0.5033493 0.06820097 0.4740182 0.073582515 -0.20699745 0.13436687 -0.16742809 0.022130271
663 0.15717857 0.5691936 0.17477614 -0.13405673 -0.52174646 0.15376249 0.12767269 -0.17525056 -0.22655661 0.07213788 0.1902964 0.5901531 -0.24145047 0.3018837 0.14071226 0.21529153 0.5358081 0.024658704 0.2227903 0.27170575 0.06203772 -0.1551037 -0.19638905 -0.084068544 0.84999746 -0.033031646 -0.18007801 -0.219581 0.0003058065 -0.33412424 0.17126219 -0.14140484 -0.10325356 0.09325657 0.37382454 -0.30281535 -0.21276943 -0.05838397 0.18930604 0.01656927 0.1097108 -0.08606486 -0.35155058 -0.116356544 0.03485597 0.42010614 -0.01064528 0.29343653 0.36970988 -0.106574476 -0.013714051 -0.18391062 0.6242811 0.07901669 0.08541742 0.51346517 -0.114459634 -0.15404479 0.01835929 -0.27825433 -0.066535234 0.22903009 0.009865808 -0.1701556 -0.30637738 -0.29117334 -0.30322018 0.080697946 0.2767154 -0.14142019 -0.31427115 0.28576294 -0.122105524 0.6081812 -0.03439514 -0.045124322 0.46048734 0.37407178 -0.022766894 0.021163112 0.3419919 0.023392126 -0.05307575 -0.14222072 0.15840669 0.146094 0.3733746 0.25840947 0.17214784 -0.029198077 0.10138741 -0.078826785 -0.18879594 0.013318357 0.001703545 0.30646104 -0.20897718 -0.30156526 0.25390807 -0.17632532 -0.3314555 -0.14545178 0.04536656 -0.11162331 0.47406858 0.25503644 -0.2473149 -0.17558719 0.21776447 0.28110462 -0.1467821 0.13733394 0.34861764 -0.33422494 -0.24483217 -0.15095054 0.044601068 0.18538874 0.34012145 -0.07133024 -0.4729644 0.04980556 0.53270215 -0.0018748727 -0.19973172 0.19431646 -0.25332993 0.1115171
659 0.100428104 0.14030087 0.28658116 0.2163701 -0.2568033 0.19303384 0.12475313 -0.11479335 0.39237526 -0.13904169 -0.0483465 0.06694006 0.3595153 -0.087289274 0.14369734 0.04748056 0.0143038705 -0.05251814 -0.32437137 -0.2482476 -0.014191726 -0.42343062 -0.075155355 0.06622407 0.18055731 0.00016847515 -0.08192239 -0.40345973 0.17821595 -0.016972218 -0.29577786 0.38709658 -0.05737438 -0.3734135 -0.20665225 0.18186207 -0.23948057 0.14809512 0.088024534 -0.16217437 0.19606794 -0.56548303 0.18820186 -0.3097463 0.3100744 -0.0793163 -0.15688698 0.108169645 0.23216958 0.04048063 -0.23140384 0.030390432 0.08925182 0.08049897 -0.16335134 -0.019608855 0.19971086 -0.13692021 -0.41761285 0.008252472 -0.21607459 0.56921697 0.006714621 0.074477315 -0.30594766 0.26573288 -0.09847751 0.1782417 0.19808723 -0.3579535 -0.2199438 -0.08014192 0.23604025 0.12073804 -0.024879597 0.32171255 -0.08688712 -0.09274495 0.011373036 0.116718 0.47344682 0.25514477 0.15143001 0.064856075 -0.016109183 -0.20264822 0.35786852 -0.14940174 -0.25487694 -0.17712183 -0.0087394705 -0.19480698 0.30454233 0.30151948 -0.12116715 0.097550996 0.15634298 -0.05352545 -0.21909049 -0.060296748 -0.36177891 0.34359896 0.19678612 0.27145436 0.064524904 0.087044775 0.18674079 -0.26556987 -0.06588139 0.010551073 -0.0025397516 -0.41417646 0.40908766 -0.27205333 0.0074624754 0.21954553 -0.37697712 -0.18534575 0.07656335 -0.13347986 -0.17905016 0.007311699 -0.31701532 -0.051742513 -0.059326015 0.22883083 -0.4402541 0.13345575
586 0.13596539 0.028114796 0.25444093 0.32176164 -0.2743735 0.054211296 0.24372342 -0.071336694 0.42424086 -0.13969713 0.018927708 0.033768523 0.2765022 0.022090994 0.06387281 0.028896034 0.04864891 -0.04007123 -0.25124055 -0.23840488 -0.0640853 -0.38063374 -0.11402255 0.069602355 0.2320952 -0.047276244 -0.16597262 -0.37312174 0.17014278 -0.010002628 -0.3148236 0.3867536 -0.035529323 -0.273636 -0.14773825 0.13060814 -0.170536 0.19807787 -0.012182933 -0.22632451 0.21162601 -0.3778747 0.119806886 -0.28234795 0.3001471 0.011681159 -0.24461332 0.03488728 0.298208 0.018154696 -0.24839361 0.066601634 0.10910385 0.15419006 -0.12073269 0.008742111 0.15365179 -0.13164641 -0.4844027 0.03204875 -0.11628269 0.45552433 0.072489314 0.17102298 -0.3619521 0.18689603 -0.115485124 0.15642726 0.17561163 -0.27500045 -0.17156534 -0.07324818 0.26284534 0.06191613 0.05584187 0.32021558 -0.11006817 -0.1584632 0.0066492315 0.086208336 0.50706124 0.28873256 0.15157712 0.041391466 0.09929307 -0.117248274 0.32295212 -0.23795003 -0.2520102 -0.2960438 -0.056427203 -0.21396789 0.25269887 0.16621391 -0.023844318 0.08702339 0.113821946 -0.045691893 -0.16620289 -0.037278317 -0.27505693 0.29285988 0.17246148 0.33711904 0.02018982 0.110273704 0.10970716 -0.28131685 -0.075650595 -0.07175176 0.09715247 -0.3189915 0.35596785 -0.3724947 -0.048023395 0.23905134 -0.4392353 -0.1689914 0.07926996 -0.058235884 -0.23299834 -0.050052036 -0.31144607 -0.17900412 0.036604866 0.21902178 -0.3114461 0.0053452756
731 0.14435856 0.43463275 0.13104151 -0.12435109 -0.5227478 0.040420525 0.11056105 -0.11741292 -0.13331878 0.18652506 0.14305884 0.5824325 -0.075656086 0.27529225 0.05474199 0.14027448 0.48863435 -0.015352991 0.22338492 0.30266467 0.0765826 -0.21029946 -0.11627031 -0.059687406 0.8258514 0.0095261615 -0.098464005 -0.17144519 -0.026199445 -0.31952274 0.13596153 -0.25105545 -0.093566686 0.09041074 0.4239578 -0.36340678 -0.24730769 -0.10837498 0.24926615 0.06722401 0.038700577 -0.0074468954 -0.29928523 -0.13686159 -0.0031386958 0.49193493 0.05245226 0.22372738 0.27004218 -0.017946802 -0.02179805 -0.11964425 0.5596813 0.0021660242 0.0546884 0.42530665 -0.037627537 -0.107498206 0.05891498 -0.20517635 -0.0022582728 0.2995206 0.025420666 -0.0741572 -0.28561267 -0.29578745 -0.29796445 0.0200078 0.37791616 -0.21410485 -0.43179572 0.23771021 -0.07271818 0.4610752 0.02064586 -0.09322625 0.6039662 0.35990778 -0.06354112 0.03122085 0.32018352 0.09016364 -0.04223112 -0.18489546 0.17083189 0.14335464 0.35182574 0.24177809 0.1339017 -0.006441402 -0.0051674945 -0.18669775 -0.124616966 0.043538567 0.0074153477 0.17313318 -0.3919061 -0.2598847 0.1483336 -0.24983194 -0.20285726 -0.13588236 0.10512673 -0.1896351 0.3343623 0.28525943 -0.27917936 -0.107395425 0.16477698 0.2587599 -0.21362051 0.005968098 0.3603289 -0.27904233 -0.35289186 -0.12229131 0.049138594 0.16641185 0.26277313 -0.034227002 -0.53784406 -0.06388223 0.5314724 -0.025698736 -0.26926497 0.29765296 -0.26372096 -0.01180588
835 0.009440863 0.15040796 0.3353586 0.2695458 -0.050810553 0.09036985 0.14501728 -0.08171731 0.49391553 -0.17984469 0.11499294 -0.075444855 0.31355667 0.015150633 0.16504265 0.02633184 0.05459629 -0.15733579 -0.19352174 -0.2741875 -0.013713197 -0.33028007 -0.212606 0.0642026 0.2693291 -0.13409974 -0.1670878 -0.48187545 0.27749214 0.07734606 -0.3860192 0.44858444 -0.023501042 -0.24742186 -0.19246043 0.14672697 -0.17222045 0.16353022 0.055483792 -0.15021463 0.11695382 -0.5202227 0.028246377 -0.23513094 0.3177355 -0.11984981 -0.26803797 -0.0030115296 0.31263652 -0.063168295 -0.24293742 0.05448692 0.18744594 0.10563773 -0.17427072 -0.040469963 0.023003614 -0.08905553 -0.37552902 0.019853761 0.020016704 0.31986466 0.12859936 0.23600349 -0.3040184 0.31054887 -0.149243 0.14701849 0.1791206 -0.27038118 -0.2837219 -0.10302398 0.31264275 0.12504221 0.122018 0.30981278 -0.05908452 -0.21338771 0.056087643 0.09643709 0.5549276 0.26876327 0.08666941 0.106774166 0.15755913 -0.13491903 0.27876163 -0.10916459 -0.2728994 -0.26052138 0.056098856 -0.14746414 0.23132926 0.18428522 0.010497633 0.09441618 -0.008707896 -0.112548694 -0.20406233 -0.009642954 -0.13846457 0.24240382 0.29648262 0.38509434 -0.047436368 0.16849944 0.032401938 -0.19034496 -0.1565734 -0.08911099 0.15910989 -0.30304688 0.42536494 -0.2899661 -0.07216936 0.21472877 -0.42600685 -0.22710782 0.0804462 -0.025861736 -0.23639676 -0.034230664 -0.24271134 -0.15070838 -0.0015144 0.3742401 -0.27366078 0.068229586
973 0.024017548 0.23350406 0.27682278 0.37374964 -0.16682623 0.09903033 0.09162649 -0.10850669 0.49925113 -0.29821318 0.018327769 0.002430856 0.22936445 0.10264137 0.069492824 0.02560829 0.14059897 -0.2222457 -0.056419156 -0.20850241 -0.13451734 -0.25779298 -0.14332806 0.13139282 0.14707823 -0.15114377 -0.27458912 -0.3454201 0.18071453 0.05267194 -0.42957896 0.42449164 -0.07761563 -0.15513758 -0.20702027 0.15360214 -0.10863334 0.13434508 -0.11853626 -0.19080865 0.26668823 -0.42383626 -0.019080246 -0.30673346 0.17465262 -0.072123826 -0.42060858 0.02130789 0.22894095 -0.15326843 -0.1799994 -0.044914734 0.049527876 0.06499952 -0.1844635 -0.028578436 -0.048921812 -0.015215645 -0.21680538 0.029660106 0.25358823 0.2510436 0.14034578 0.25973696 -0.4145933 0.1381972 -0.03854877 0.10715538 0.13397656 -0.3081211 -0.20378296 -0.032165535 0.21049619 -0.014868553 0.14043026 0.43553588 0.0022985374 -0.21142235 -0.052196708 0.08233956 0.5172662 0.24600823 0.16683647 0.03165121 0.077209175 -0.092911236 0.33609703 -0.16101992 -0.22397569 -0.27428082 0.035809804 -0.34411913 0.16074266 0.2462842 0.10820455 0.023191795 -0.14010458 -0.10151385 -0.1464475 0.027852682 -0.17530593 0.29906026 0.28589156 0.4298128 0.080616795 0.17507799 0.025378255 0.005355871 -0.16985777 -0.16515657 0.1679682 -0.2610128 0.37557396 -0.40193233 -0.08000141 0.36440623 -0.31908578 -0.14704072 0.081192456 -0.052663635 -0.2889053 -0.05402042 -0.16290045 -0.20717657 0.001937104 0.21629591 -0.32551932 0.021722976
647 0.022354253 0.023978168 0.34723765 0.32920432 -0.21365106 0.13493535 0.23919082 -0.07309698 0.34947866 -0.27497393 0.101695284 0.090877496 0.2336333 -0.015521053 0.04881924 -0.035507638 0.07244564 -0.07144621 -0.25333163 -0.19669826 -0.07989013 -0.25689396 -0.084792756 -0.014028397 0.27299088 -0.12125721 -0.20529635 -0.39173567 0.14907625 0.045369484 -0.2522423 0.4214054 -0.066225 -0.2209368 -0.23226538 0.08733627 -0.13818112 0.19604875 0.038897898 -0.16865502 0.23889828 -0.35056084 0.020043032 -0.2471494 0.21416971 -0.05538393 -0.30197716 0.07179729 0.25082126 -0.07857036 -0.24241939 0.047858953 0.0770452 0.1467413 -0.16496338 0.02305734 0.13675724 -0.16428725 -0.39970648 0.10499155 0.054883804 0.41105184 0.16776139 0.28052482 -0.29198518 0.1771115 -0.10611531 0.08214452 0.13933066 -0.24218345 -0.11434108 -0.1184307 0.25627127 -0.0048391907 -0.011184374 0.2666696 0.009155649 -0.17831844 -0.024825776 0.19837506 0.50202155 0.27196696 0.13056727 0.14829269 0.09420859 -0.11970155 0.24925336 -0.17529385 -0.232968 -0.34557125 0.050649 -0.2861613 0.07192528 0.18205422 0.081419535 0.1185623 0.027393686 -0.18030097 -0.15690751 -0.021329358 -0.28008685 0.2904458 0.1914822 0.3977324 -0.0060708895 0.09228793 0.0671328 -0.12749916 -0.068244494 -0.08080276 0.07415719 -0.309209 0.4588258 -0.2577728 0.09576194 0.17699534 -0.4619322 -0.26050016 0.10189152 -0.05698399 -0.19609751 -0.05217828 -0.30400148 -0.15354066 -0.020325998 0.20338736 -0.21563134 -0.085157685
929 0.07878235 0.25914562 0.3237847 0.3962259 -0.18065724 0.078325495 0.07738303 -0.12431868 0.50047714 -0.2459688 0.036077876 0.019311354 0.19516383 0.027867677 0.09110797 0.0062420615 0.1605346 -0.24516323 -0.089155875 -0.22367534 -0.08768398 -0.3148229 -0.08905901 0.12570763 0.085044876 -0.20708053 -0.24391244 -0.30578578 0.15223595 0.09303118 -0.44460484 0.46875462 -0.0053753178 -0.16031763 -0.17269076 0.18803872 -0.046603426 0.15314972 -0.129748 -0.16901828 0.1982183 -0.42466456 -0.030882323 -0.29861665 0.09484216 -0.11488505 -0.3756995 -0.003687878 0.23691545 -0.227513 -0.21234459 0.0030391302 0.08599783 0.077535704 -0.17404144 0.023527684 -0.082869016 -0.006061029 -0.2317982 0.016238635 0.2045197 0.32820496 0.11494274 0.25166008 -0.44848278 0.18088467 -0.05199434 0.08836143 0.07712421 -0.30910173 -0.17649502 -0.04619109 0.25343153 -0.0020020653 0.10211921 0.4798921 -0.0058441404 -0.21510737 0.002953244 0.044356383 0.4881453 0.23783211 0.1858177 0.045124695 0.06676744 -0.066220805 0.28970775 -0.1705475 -0.16790621 -0.30714643 0.06436222 -0.31156698 0.18032087 0.24811913 0.08519907 -0.02351134 -0.062001713 -0.076148994 -0.15701261 0.10042889 -0.2023778 0.24831358 0.32179248 0.38746637 0.17107046 0.16090207 -0.008830484 0.025714645 -0.17012314 -0.18338816 0.12416162 -0.2722259 0.44770047 -0.31616625 -0.07432065 0.3059807 -0.3326113 -0.08635366 0.08911683 -0.016651848 -0.2537641 -0.08283088 -0.137381 -0.19270872 -0.094907664 0.2794011 -0.4246463 0.013369719
409 0.24395561 -0.9816764 0.28291658 0.088596895 -0.502217 0.43918258 0.22621663 0.12342596 0.4045682 -0.12505539 0.36965615 0.4906614 -0.43862343 0.080334485 0.4815841 0.71661556 0.007773282 -0.112585984 -0.18323629 0.40689263 0.45772183 -0.41392726 0.021841537 -0.40672672 0.25921276 0.64563024 -0.039626244 -0.20669635 0.45202827 0.09252204 0.0478799 0.3481336 0.3445851 -0.11335345 0.14453483 0.24702781 0.3225949 0.26860857 0.11976494 -0.42618027 -0.09989203 -0.3598677 0.0746608 -0.18178782 -0.2951453 0.39312965 -0.30764124 -0.41484943 0.15484138 -0.15668668 0.016128378 -0.29861102 0.44315282 -0.48503074 -0.08218778 0.27222326 0.130066 -0.34234902 -0.20652753 0.040062275 0.100668505 -0.19208579 0.19716857 -0.24478616 -0.2898715 -0.2118931 -0.13540949 -0.35857886 0.05111118 0.20794739 -0.04969399 -0.27036566 0.08947709 -0.22384094 0.7100581 0.23265694 0.25970298 0.36206996 -0.2968927 -0.086907126 0.017895361 -0.2437782 0.33121923 -0.218411 0.21849221 -0.29176 0.3409505 -0.30595234 0.16575634 -0.38308316 0.68402797 -0.25254333 -0.44075787 0.0072768484 -0.3997612 -0.036869828 -0.30650508 -0.18258555 0.15779659 -0.27920341 -0.33080095 0.4699964 -0.23043893 -0.20198746 0.33448973 0.35515782 0.112896144 0.6239061 0.39337066 -0.08683536 -0.722618 0.25448552 0.18596433 0.28918326 0.16741076 -0.26584366 0.40600422 0.40558973 -0.20964296 0.057937518 -0.5661216 -0.54135484 0.3095389 -0.20988303 0.01030125 0.80437016 -0.13452303 -0.3771683
332 0.27503654 -0.6965573 0.16501476 0.28366265 -0.12087688 -0.07346923 0.10451901 0.61029404 0.15282467 0.07510788 -0.056242686 0.29669014 -0.17318599 -0.24209067 -0.11295822 -0.31935805 0.3228354 -0.42762333 -0.4922447 0.14646143 0.3453841 0.15503022 -0.094170086 0.05425395 -0.08375094 0.26326218 -0.34883896 0.095137805 0.103668265 -0.1614514 -0.36266688 -0.17859705 0.53550863 -0.11783901 0.01054802 0.096095204 -0.54014844 -0.013009975 0.22267623 -0.11385858 -0.31704926 -0.3142811 -0.36433995 -0.061648212 0.10776238 -0.3661231 -0.54659 0.191384 -0.28165472 0.07397586 -0.27732342 -0.07394684 0.28930455 -0.03120409 0.28004634 0.29973498 0.1527037 0.108418345 0.25088698 0.20535041 -0.17787169 -0.13832133 0.13174385 -0.2906604 0.03404879 -0.38405132 0.07200036 0.5102123 0.35410103 -0.055518027 0.0571864 -0.030876221 0.093999095 0.19916509 0.12963411 0.47877416 0.50555855 0.17110102 0.13749799 0.3333573 0.40131855 0.3412569 0.30451524 -0.23883416 -0.093361065 -0.65292543 0.36350706 0.13997117 0.5563276 -0.5358797 0.19639562 -0.31633952 -0.029088022 0.2392992 -0.36368677 0.14366294 -0.9158839 0.1487326 0.3968742 -0.15586017 -0.1525521 0.34076712 -0.21733475 0.018581152 0.4599243 0.012194317 -0.2341286 -0.4674301 -0.14964114 0.36851922 0.3075934 0.2640548 -0.09115944 -0.22403407 -0.38551304 0.1067121 -0.3985142 0.10160548 0.13287857 0.053380348 0.89969087 0.3063882 0.1169843 -0.054286513 -0.16066368 -0.12576632 -0.3994937 -0.12545131
784 0.04660109 0.20488273 0.4279094 0.3104508 -0.3158653 0.08586151 0.23569791 -0.06758619 0.45591307 -0.42393544 0.11120107 0.0071638315 0.09856385 0.067354195 0.05824213 0.060652785 0.0070934985 -0.11720428 -0.1847745 -0.27982587 -0.015905978 -0.2920702 -0.19366287 0.09597472 0.18828589 -0.28256276 -0.19378497 -0.48824582 0.018187765 0.097335726 -0.2673223 0.45426393 -0.01919026 -0.23433176 -0.27825785 0.13547665 -0.031928837 0.1266806 -0.027023414 -0.30436662 0.25050223 -0.43120626 -0.06691709 -0.11096883 0.23309632 -0.029141257 -0.38793454 0.022095483 0.22677267 -0.09765095 -0.20262572 0.05146545 0.077450626 0.16212434 -0.19796519 0.15731438 0.046988893 -0.19209994 -0.21301608 0.09469388 0.13991044 0.34218833 0.17394552 0.12357131 -0.3502677 0.20423488 -0.106771976 0.21628353 0.19057983 -0.2375565 -0.0414362 0.058976028 0.11991544 0.04927692 0.0040346617 0.2541394 0.030716896 -0.25491783 0.030584078 0.17018177 0.43338668 0.24684618 0.2762709 0.068797395 0.020933857 -0.15441683 0.20652065 -0.23196049 -0.22646509 -0.2781017 -0.047959015 -0.21026234 0.11766883 0.19931808 0.06566595 0.014275351 -0.021278292 -0.23586392 -0.1569335 -0.071054 -0.2876909 0.2913524 0.22592019 0.28310552 0.10359972 0.07640797 0.024551904 -0.085351944 -0.09384406 -0.16183686 0.16163585 -0.30049986 0.36414996 -0.3603034 0.09396923 0.23989303 -0.516566 -0.12073832 0.020944402 -0.019900378 -0.19269197 -0.00553519 -0.17919064 -0.15517619 -0.023770032 0.18346699 -0.27166674 -0.18246366
565 0.34223428 -0.5877814 0.24840713 0.3072822 -0.04304637 -0.092157446 0.19144177 0.49589375 0.10359794 0.0404408 0.05516714 0.37544948 -0.13635479 -0.35956112 -0.060209565 -0.32862008 0.39163774 -0.42932603 -0.5234794 0.096885346 0.36857575 0.17679848 -0.07651221 0.054337546 -0.008250318 0.13796188 -0.46086395 0.0732995 0.04448479 -0.11629514 -0.19525793 -0.08397843 0.6216797 -0.072419986 0.0023277611 0.06729659 -0.46373805 0.087871484 0.22528753 -0.1369524 -0.26999438 -0.30216664 -0.41510236 -0.020749077 0.1747014 -0.38438576 -0.58962375 0.28588492 -0.2197449 0.060828142 -0.28277367 -0.037419256 0.28140107 -0.1584245 0.21101108 0.3261509 0.11474743 0.09625739 0.18557188 0.10554276 -0.09925166 -0.13066596 0.088149175 -0.34056595 -0.019483846 -0.28942338 0.027915338 0.5641677 0.24926421 -0.08702638 -0.03965597 0.05858609 0.060471635 0.24034847 0.19123761 0.37391108 0.32056597 0.17732951 0.091929026 0.39177805 0.42945543 0.2719991 0.18670607 -0.23406158 -0.06619264 -0.6210384 0.39218542 0.11989392 0.54259896 -0.5703311 0.20758422 -0.15284762 -0.014050663 0.18827274 -0.31579548 0.0747101 -0.95944315 0.256873 0.3702177 -0.17937627 -0.17912802 0.3557861 -0.16315906 0.042763382 0.4481226 -0.06441861 -0.31214622 -0.4886145 -0.22337839 0.32950395 0.23473577 0.27951697 -0.10766133 -0.16089734 -0.45360497 0.094552465 -0.29155502 0.2028818 0.08093884 0.025201509 0.80280054 0.29992583 0.16708843 0.04175869 -0.16610663 -0.069821 -0.2152833 -0.18591003
239 0.32513946 -0.59213465 0.36134753 0.27547127 -0.02912648 -0.12967123 0.25284302 0.5222881 0.12220343 -0.0130747715 0.046356875 0.397468 -0.14775541 -0.38552698 -0.053479202 -0.22935352 0.38846046 -0.39134398 -0.44581679 0.1580808 0.21953553 0.18839943 -0.12070851 0.0921537 -0.18935813 0.20299487 -0.4424802 0.08328037 0.11999079 -0.13102795 -0.13426255 -0.080906235 0.63118535 -0.14362189 0.07804915 0.05565966 -0.5064106 0.088399544 0.21259247 -0.09409065 -0.24235101 -0.39349282 -0.43159693 0.068729155 0.13661611 -0.31392434 -0.5061303 0.24290855 -0.17487645 0.03758638 -0.316881 -0.11089979 0.25308904 -0.08846404 0.292322 0.37495455 0.25648755 0.04666904 0.17538665 0.14116319 -0.21677983 -0.08049548 0.08690234 -0.39011526 -0.09737794 -0.28654644 -0.026348375 0.5660749 0.22768757 0.0006652991 0.102031164 0.072470315 0.06597929 0.26732838 0.05156323 0.4092973 0.38935927 0.16782379 0.121966854 0.42710945 0.38951638 0.2833999 0.17703933 -0.23711684 -0.056857362 -0.55229336 0.37475628 0.08497679 0.5951089 -0.6049512 0.110817954 -0.10227334 -0.08175925 0.12388269 -0.29806477 0.10311788 -0.9255874 0.15770595 0.36953855 -0.2658482 -0.2991977 0.24726093 -0.15758945 0.07628649 0.4704442 -0.063795015 -0.36158833 -0.46625137 -0.1399586 0.3934881 0.20069091 0.32876003 -0.06754356 -0.21346919 -0.35466814 0.112253755 -0.4426462 0.20156826 -0.033287033 0.1314183 0.8198178 0.3284052 0.14224133 -0.11064061 -0.24237837 -0.13005531 -0.23005718 -0.25773427
113 0.34033468 -0.5715393 0.36711028 0.32260215 -0.05395786 -0.13459125 0.21788822 0.49400747 0.19785416 0.028595425 0.10050666 0.4188008 -0.15049377 -0.26308864 -0.06744508 -0.2601498 0.42521188 -0.28728738 -0.39773107 0.1406822 0.24739133 0.1853187 -0.10901369 0.11949074 -0.06999492 0.15577476 -0.46297827 0.15730134 0.08317435 -0.1496148 -0.10877482 -0.13411179 0.65499806 -0.019379728 0.06588534 -0.016109204 -0.47400618 0.09288713 0.22713074 -0.15856297 -0.25911218 -0.38775098 -0.4232253 0.07352469 0.113754615 -0.40055475 -0.5468402 0.23377545 -0.13420577 0.05099277 -0.2760839 -0.15612748 0.23893017 -0.13432239 0.2189159 0.3532788 0.18693887 0.092306286 0.1586635 0.16136959 -0.18506567 -0.08281639 0.029988019 -0.4178077 -0.09637935 -0.32398936 -0.019456806 0.50754374 0.24461418 -0.07160339 0.023733666 0.0061535104 0.015306965 0.22549881 0.15788609 0.40670216 0.24791542 0.18591298 0.15221043 0.42831925 0.36024943 0.2558798 0.16673566 -0.14986666 -0.083989464 -0.49627176 0.36414424 0.110481 0.60126626 -0.5591068 0.20127851 -0.11608276 -0.036968626 0.14977102 -0.22584383 0.05631145 -1.0299886 0.26099148 0.33885303 -0.15035883 -0.2057009 0.28147197 -0.09250372 -0.01580307 0.53124124 -0.081377216 -0.3418434 -0.48277846 -0.23146194 0.38772792 0.075243555 0.33564085 -0.0765843 -0.2533875 -0.41132095 0.13077118 -0.38866797 0.2004979 -0.023155158 0.14304103 0.7618173 0.31717047 0.10060496 0.0062158825 -0.1897086 -0.11226713 -0.19139473 -0.24250095
976 0.06173612 -0.14297855 0.13803156 0.25167882 -0.32894212 0.18445908 0.3084465 0.066799894 0.38074753 -0.03937704 -0.07993679 -0.049615867 0.27825275 0.08788619 0.03180704 -0.09033976 0.041473515 0.0022493175 -0.28813574 -0.32301578 -0.13807914 -0.3818953 0.04823088 -0.0034512647 0.27597612 -0.0854089 -0.0935385 -0.4732185 0.19642699 -0.0658786 -0.36286968 0.40366408 -0.01988174 -0.37841186 -0.23811476 0.15120888 -0.31164676 0.1738214 0.018271144 -0.1481293 0.16975275 -0.31196806 0.20325652 -0.43521732 0.40811285 0.048715558 -0.25824073 0.14146732 0.27480716 0.09898155 -0.2807493 -0.017504983 0.074934594 0.1595929 -0.1802456 -0.0467001 0.038863234 -0.13939814 -0.5669428 0.054649588 -0.21717797 0.45706862 0.12933941 0.21847737 -0.36308545 0.21724747 -0.11872694 0.13556688 0.14209133 -0.3546052 -0.21259204 0.046538886 0.29439586 -0.034023125 0.023039443 0.3178515 -0.1449921 -0.16263804 0.049830105 0.13212411 0.5501114 0.22313288 0.16019103 0.07818915 0.10974342 -0.13493514 0.33626497 -0.17989028 -0.20826676 -0.296853 0.07825934 -0.24095994 0.31694433 0.22162491 -0.0782955 0.13748737 0.13848627 -0.031623457 -0.26346323 -0.09617553 -0.34133005 0.42113057 0.29773566 0.32509246 0.1513754 0.12151407 0.13408485 -0.36312246 -0.013257703 -0.13038354 -0.07690143 -0.32584637 0.36955592 -0.35498866 -0.029108597 0.17231715 -0.43979993 -0.14407651 0.04934559 -0.19047034 -0.1907938 -0.085405916 -0.18740103 -0.15841752 -0.0070146723 0.19129834 -0.2421361 0.14324737
335 0.39731064 -0.60023445 0.47293794 0.28617364 0.029461224 -0.12356847 0.2324389 0.47846168 0.110020414 0.03441187 0.094216004 0.5803781 -0.1474401 -0.3239356 -0.08442072 -0.2903685 0.3480618 -0.2895457 -0.43338007 0.17981325 0.2122685 0.098222785 -0.087953135 0.19470772 -0.10867301 0.13150555 -0.51532096 0.07864838 0.021156894 -0.11389534 -0.11249299 -0.067294285 0.6554312 -0.09948563 -0.019943733 -0.02756079 -0.5676331 0.13804433 0.20385966 -0.14881511 -0.30968755 -0.35570562 -0.47364888 0.03275934 0.12112967 -0.4368815 -0.5699616 0.3065242 -0.13094899 0.043796096 -0.32274607 -0.12511392 0.19005543 -0.15260962 0.26165426 0.33825514 0.12154122 0.15447238 0.20631443 0.04902242 -0.2107326 -0.045187403 -0.05482237 -0.37748346 0.009038091 -0.3035155 -0.02105308 0.4970485 0.20740019 -0.07084711 -0.05296625 0.018289572 0.08802153 0.20846006 0.1681534 0.38637757 0.34538028 0.21744522 0.095712 0.4059493 0.3540645 0.31337285 0.20194072 -0.1951943 -0.102509275 -0.5262562 0.4169929 0.10220774 0.62056863 -0.6390308 0.2218578 -0.04180847 -0.0076435236 0.17920612 -0.26268917 0.0847977 -0.93961954 0.18249463 0.32875592 -0.12746055 -0.2412112 0.29996866 -0.10354993 -0.0005038205 0.52371144 0.0043773795 -0.2597614 -0.49090305 -0.22224902 0.4394008 0.07255257 0.33048984 -0.09991295 -0.23972434 -0.45688424 0.14951573 -0.36576405 0.15989266 0.056824233 0.104382284 0.66923 0.32351312 0.07409001 0.019071164 -0.26771215 -0.18947226 -0.21274467 -0.2945826
945 0.17710988 0.15022704 0.34087032 0.2779734 -0.098418765 0.21364596 0.2312141 -0.112651564 0.4817098 -0.175106 0.106577195 0.11314863 0.36693317 0.057923444 0.037863363 -0.06839178 0.01563842 -0.18601999 -0.21135838 -0.27984676 -0.13126737 -0.4435368 -0.077501744 0.043368187 0.23170897 -0.0629336 -0.23959994 -0.38165542 -0.061912164 0.049909767 -0.32932428 0.43149585 0.047984667 -0.30224368 -0.22766346 0.018801214 -0.27429968 0.12977375 -0.13660212 -0.3504587 0.14914614 -0.30421987 0.05972487 -0.22161119 0.16631481 -0.009466522 -0.3858249 0.007004238 0.21748582 -0.10808416 -0.22669996 -0.07240775 0.0066724173 0.1685686 -0.13481893 0.04746534 -0.070251815 -0.19040102 -0.3118447 0.13042074 0.15402521 0.33988622 0.27004266 0.17161688 -0.45859894 0.18293673 -0.115899555 0.07212937 0.23204724 -0.2687649 -0.15837754 -0.049319714 0.24717364 -0.0075237844 0.010062556 0.2550971 0.08828206 -0.37997073 0.0010350565 0.108754024 0.56534564 0.30995855 0.22198844 0.017312374 0.016484292 -0.1733915 0.26348358 -0.17700659 -0.24967448 -0.33275762 0.08754853 -0.35728663 0.11552196 0.20369107 0.11185579 0.12207298 0.046462975 -0.13569155 -0.21719179 -0.04052516 -0.27427095 0.3157697 0.18761015 0.33935353 0.15233655 0.07750141 0.041739143 -0.013599688 -0.15284608 -0.13948834 0.085004345 -0.25286254 0.3054682 -0.35536242 -0.07649748 0.268307 -0.5439436 -0.22742392 0.102681994 0.0663155 -0.283067 -0.06580036 -0.13205464 -0.12770884 -0.053784695 0.25693384 -0.1364466 -0.097990364
697 0.23082781 0.3085887 0.15197587 -0.14254 -0.37545025 -0.01199224 0.14746033 -0.0936182 -0.27765244 0.26498833 0.066085815 0.5712905 -0.23241721 0.30859265 0.038732335 0.089505084 0.40698427 0.119961224 0.15872434 0.38804284 0.07133643 -0.3713808 -0.05082616 -0.03558798 0.83119285 0.080065265 0.025259772 -0.2968882 0.10390177 -0.20459864 0.11064534 -0.3062217 -0.14450207 0.14223939 0.26470497 -0.23820813 -0.2941674 -0.11988673 0.31607506 0.035989925 0.023095539 0.030145612 -0.29326677 -0.2159283 0.013257858 0.39840418 0.023541143 0.311149 0.2596838 -0.11915007 -0.08603743 -0.087279856 0.42361644 -0.004811713 -0.003016517 0.4067226 -0.019101001 -0.14018959 -0.017162992 -0.16570593 -0.043810595 0.24059603 0.041894488 0.0879117 -0.23206608 -0.21445633 -0.42826325 0.08489316 0.42831776 -0.2074271 -0.29559514 0.29332626 0.023411427 0.36390796 0.047231905 -0.15864053 0.6666305 0.31578577 -0.055023395 0.10544986 0.23358747 0.13084054 -0.19654876 -0.26982564 0.17822388 0.1066191 0.30816153 0.32880408 0.05912838 0.11059664 0.039274205 -0.38014784 -0.21033181 0.047827087 -0.0056624776 0.24695042 -0.45127243 -0.36766613 0.23629093 -0.25650474 -0.17658882 -0.091222905 0.21822007 -0.17453654 0.2464174 0.3729813 -0.24159883 -0.08681124 0.14277983 0.31110376 -0.3428678 -0.026207574 0.27272722 -0.18793908 -0.43539053 -0.034139782 0.004919023 0.2211282 0.29610896 0.030984834 -0.62318623 -0.089331344 0.51327974 -0.09117798 -0.2838108 0.2766818 -0.34938774 -0.011371566
760 0.11992934 0.38320962 0.036864772 -0.06631281 -0.5919647 0.0425934 0.080869116 -0.05336428 -0.36333534 0.23148346 0.16548604 0.5399701 -0.024204604 0.3236823 0.071383804 0.12888737 0.55381227 -0.12498835 0.12293454 0.37103724 -0.0069159735 -0.09387323 -0.079078555 -0.058146596 0.8628222 0.070073016 -0.08580186 -0.31423634 -0.06597306 -0.2879153 0.23406288 -0.3329862 -0.26082826 0.020805102 0.47973603 -0.32181072 -0.24030414 -0.08726683 0.3667668 -0.0648787 0.09590137 -0.030090092 -0.29295406 -0.28699479 0.033045925 0.41526288 0.022979544 0.235163 0.20632215 -0.08466245 -0.09445721 -0.09630379 0.56676495 0.03315183 0.07380385 0.4066657 0.09155428 -0.30612913 -0.059839364 -0.29025555 0.09985736 0.30913717 0.08374105 0.12314688 -0.26713803 -0.16113214 -0.31609565 0.047650088 0.31993547 -0.1697871 -0.36260292 0.28929794 0.00066892704 0.47212717 -0.00020976482 -0.025801716 0.49654523 0.3525181 -0.044367064 0.16066585 0.4734826 0.07152577 0.07264132 -0.082368314 0.051377647 0.16106287 0.44371775 0.38375598 0.09532956 -0.023100782 0.08716831 -0.2964914 -0.24759589 -0.0048885 0.16416825 0.2533377 -0.3423678 -0.31653756 0.20112208 -0.26782358 -0.1937046 -0.12186472 0.066924326 -0.18627818 0.21238868 0.27237275 -0.5157346 -0.14485079 0.19652314 0.26900998 -0.31626323 0.11256673 0.26995355 -0.14552954 -0.22679627 -0.19105478 0.06581427 0.28025755 0.28477368 0.043129597 -0.5088656 -0.17579393 0.5804886 -0.045003373 -0.27312553 0.27482572 -0.13442196 0.0979629
481 0.48741722 -0.6577306 0.4517117 0.23201892 0.14225167 -0.13517024 0.20493849 0.46361732 0.080383494 0.060645502 0.3813108 0.57878834 0.00052819675 -0.108531974 -0.087056525 -0.3698356 0.39825326 -0.16317 -0.4222496 0.12029544 0.06709015 0.10451784 -0.033796865 0.12160802 -0.112548836 0.062143806 -0.6441961 0.15013276 0.047012676 -0.113227904 -0.22278582 -0.1438857 0.633774 -0.07543966 0.11801397 -0.17689838 -0.52110374 0.11858731 0.20487736 0.010217734 -0.22550522 -0.40075022 -0.55260247 -0.0010848196 -0.053292755 -0.51538265 -0.5967064 0.3311937 0.07979778 0.017201433 -0.38613576 -0.2932808 0.078394845 -0.11830034 0.353859 0.31534886 0.34842396 0.30310827 0.15905157 0.113314606 0.02357021 0.0036282374 0.067747906 -0.32394713 -0.043755706 -0.36146134 -0.3384056 0.5572401 0.30978882 -0.3423682 -0.08872663 0.002715905 0.27900833 0.18630253 0.16887139 0.43404862 0.16828513 0.29547745 0.2181609 0.5155116 0.19338012 0.13072343 0.12961273 -0.32684082 -0.043192763 -0.34552303 0.2676293 -0.124057084 0.6867694 -0.7174024 0.27329808 0.087960884 -0.21239668 0.19882236 -0.09112469 0.053968057 -1.0289367 0.2958261 0.43299463 -0.15654123 -0.017102974 0.21728559 -0.08519684 0.10831701 0.5427993 -0.062376425 -0.18956636 -0.3545579 -0.27025637 0.3959892 -0.18798983 0.33018067 -0.0012004436 -0.17738043 -0.51657057 0.07256875 -0.45461416 0.008737377 -0.069776095 0.20204562 0.53627354 0.36139935 0.14183967 -0.17579079 -0.07303135 -0.43322295 -0.015141006 -0.4878206
854 0.17112127 0.38185322 0.15211883 -0.036334664 -0.45814472 0.07707358 0.1260043 -0.14280736 -0.19500618 0.21154293 0.11114641 0.5195919 -0.068903685 0.32529712 0.12205753 0.20091406 0.45744967 0.053001672 0.14548898 0.25888038 0.12959717 -0.10155957 -0.14425963 -0.06812991 0.8514022 0.085596465 -0.058754146 -0.28596735 0.026585484 -0.31231248 0.07993547 -0.28011948 -0.1549768 0.08516808 0.34520507 -0.34784135 -0.24815005 -0.058908023 0.32583287 -0.019759454 0.007113687 0.04298606 -0.32524887 -0.1402514 0.078713976 0.42986533 0.02913935 0.33795014 0.2450983 0.00042425102 -0.03875877 -0.16661218 0.57812977 0.021319112 0.08725019 0.35610324 -0.07769649 -0.17135854 0.055385455 -0.22434184 0.06862354 0.25156698 0.12311659 0.015525407 -0.25650555 -0.22957367 -0.37794617 0.039498076 0.36557335 -0.2290102 -0.49648616 0.3155262 -0.07446641 0.4335176 -0.012801875 -0.024808131 0.52318615 0.3230776 -0.021662163 0.08203168 0.3956629 0.03287534 -0.018378535 -0.19177774 0.1842121 0.22513561 0.32861832 0.25699273 0.1451188 -0.029149452 -0.012662673 -0.25665823 -0.17045009 -0.0043888125 0.033758327 0.20493676 -0.4489805 -0.27542827 0.14191943 -0.30818233 -0.13436551 -0.21332173 0.09053376 -0.22967732 0.24448536 0.19167124 -0.29115233 -0.120910294 0.2022077 0.1983687 -0.33394116 0.07973568 0.39300844 -0.25016835 -0.38669255 -0.13953999 0.05439601 0.3483428 0.19316125 -0.081682615 -0.6188613 -0.1244945 0.5014237 -0.04768197 -0.21465805 0.2244347 -0.28839767 0.102385536
633 0.21422458 0.37732896 0.073246315 -0.11245353 -0.40567783 0.058270756 0.066535965 -0.13654876 -0.31653282 0.1463328 0.094906576 0.5207657 -0.13806435 0.30742097 0.10653681 0.17519517 0.4527284 0.104884446 0.08714623 0.3764331 0.105780594 -0.34693536 -0.0062427404 -0.02636796 0.8172885 0.10558437 0.024297688 -0.29161677 0.057610575 -0.23898727 0.22229354 -0.27758503 -0.13411407 0.06636534 0.36252347 -0.22515777 -0.27808595 -0.08992941 0.30148634 0.022270344 -0.0024459497 -0.010985645 -0.20836452 -0.24183191 -0.005931276 0.49093467 0.010570827 0.21674152 0.32080504 -0.027139416 -0.060365535 -0.08041823 0.5206037 0.053740203 0.011133863 0.54803246 -0.046208102 -0.14367938 0.013433957 -0.2373038 0.06761733 0.2689705 0.11590514 0.051849626 -0.27550712 -0.20566207 -0.41609386 0.059715286 0.3993945 -0.17518766 -0.29729414 0.2650333 -0.037078787 0.3669631 0.033166435 -0.0466106 0.7701965 0.4067444 -0.034367964 0.068964735 0.31118107 0.15287358 -0.06929022 -0.32674834 0.09197788 0.12414305 0.26495105 0.27858162 0.15485723 0.07027581 -0.055945076 -0.39094755 -0.13964295 0.11235541 0.023944005 0.2134203 -0.41115984 -0.2819336 0.22956231 -0.22769599 -0.17995481 -0.1214515 0.13722147 -0.33642232 0.35851562 0.26354355 -0.19287965 -0.039893903 0.078761466 0.34394085 -0.3549455 -0.006218831 0.33072606 -0.21483627 -0.30240288 0.030953772 0.0040996317 0.25302702 0.23882875 -0.038349338 -0.5520267 -0.079624966 0.4479504 0.026082851 -0.24070191 0.29586062 -0.33735982 -0.0055039083
426 0.28210256 0.3574269 0.13135538 -0.11356838 -0.35375053 0.0018197384 0.07357415 -0.12130293 -0.31943884 0.2212598 0.06121288 0.5369243 -0.13547108 0.3571284 0.04370012 0.24392591 0.40148956 0.09159135 -0.022931106 0.39815083 0.13870722 -0.23995255 -0.005269717 -0.04093437 0.8798246 0.15504013 0.0042931642 -0.29379675 -0.019947462 -0.17308837 0.04032667 -0.20363219 -0.18575361 0.066969655 0.30942473 -0.2424368 -0.17382856 -0.10036759 0.34226322 0.05870331 -0.02266021 0.013574036 -0.3136727 -0.1684365 0.00068460556 0.41502252 0.0025411472 0.29200464 0.32768017 -0.13185434 -0.053567894 -0.09623959 0.532032 -0.03843811 0.0469638 0.36636975 0.014226327 -0.17386933 -0.048521027 -0.23163076 0.048272394 0.23637576 0.055545084 0.15791872 -0.28988615 -0.2897674 -0.36825198 0.14907876 0.40921512 -0.26803255 -0.34753627 0.3586966 -0.09660002 0.3119128 0.06625962 -0.06819942 0.7301659 0.4035304 -0.067970976 0.07203814 0.25471976 0.073992305 -0.13440679 -0.28844243 0.16292228 0.0849723 0.3626352 0.364911 0.078392975 0.055806905 -0.0018114164 -0.3370924 -0.16563174 0.020539854 -0.11158328 0.23025891 -0.4154615 -0.34651446 0.22530273 -0.32592762 -0.109761626 -0.106373735 0.20947264 -0.15797994 0.30660194 0.33504143 -0.23527318 -0.110988155 0.16054071 0.2672682 -0.27772814 -0.019017044 0.22217815 -0.21397854 -0.4238653 -0.11093955 0.051409706 0.23256119 0.1211136 -0.042511463 -0.6138297 -0.12640256 0.47360384 -0.04897609 -0.1885033 0.1647367 -0.35405236 -0.0068591083
106 0.20476854 -0.85169894 0.19963942 -0.32028142 -0.44176233 0.27781337 0.30249384 0.23861995 0.3811508 -0.22747092 0.43816495 0.18545346 -0.33616838 0.17845887 0.3967902 0.7139905 -0.07078462 -0.21613531 -0.09213433 0.1309977 0.4592598 -0.12672018 0.03156966 -0.29906186 0.34882113 0.44215515 0.12067401 -0.16616474 0.43560183 0.017607462 -0.06461025 0.22669522 0.23717287 -0.017870704 -0.08299182 0.051988278 0.08985675 0.13920271 0.14761204 -0.35121766 -0.08971276 -0.5345244 0.053666454 -0.20787443 -0.24675873 0.24634312 -0.2152957 -0.21878499 0.17977275 -0.032231335 -0.28950956 -0.31777662 0.32272127 -0.6692046 -0.04753984 0.30671924 0.17741056 -0.5390943 -0.13598847 0.17597283 0.053466417 -0.08693316 0.1041318 -0.22453624 -0.035256617 -0.1487021 -0.14478286 -0.3191054 0.1549554 0.08934364 -0.15048307 -0.21744311 0.042801127 -0.13058214 0.7043752 0.23195833 0.31026134 0.43859693 -0.48329502 -0.12996112 0.06678608 -0.10914537 0.041773662 -0.44674563 -0.16591232 -0.4635925 0.26693186 -0.36312717 0.43104544 -0.381522 0.62068313 -0.10479197 -0.5575017 -0.122219846 -0.46473423 -0.11634018 -0.40733728 -0.28558588 -0.0679287 -0.08094406 -0.09917479 0.48344314 -0.33844006 -0.20976043 0.1875764 0.22351347 -0.0014798287 0.48435882 0.3896354 0.052894138 -0.8786263 0.3462107 0.15727527 0.13654475 0.34196377 -0.21798274 0.2724134 0.59142774 -0.1073982 -0.04879575 -0.4383705 -0.500384 0.2174902 -0.3912222 0.009951494 0.9273095 -0.11848192 -0.28684437
386 0.20539878 -0.49257758 0.49980474 0.16065727 0.26703176 -0.12354048 0.3959408 0.13800648 0.2298917 0.3107173 0.82211566 0.008346215 -0.19707143 -0.045127995 0.26701584 0.33414677 0.40344486 0.05411371 0.21187632 -0.118009344 -0.21222134 -0.29338056 0.2856665 -0.11764198 0.14945315 -0.09977314 0.10169516 -0.5223337 0.29512677 -0.1453698 -0.6933209 -0.62556374 0.3885186 -0.024245853 0.12792885 0.4162053 0.1731264 0.048516236 0.032211155 -0.115897015 0.20934841 -0.59875226 0.030680923 -0.220002 0.010577135 0.48459563 -0.2374688 0.12806706 0.21326275 0.1622578 -0.08746987 -0.52841645 0.01938758 -0.4973312 -0.061417747 0.13420144 -0.3422569 -0.054800395 -0.1418548 -0.047919042 0.22470905 0.25527576 -0.051591936 -0.05487339 0.28062415 -0.7573877 0.31652445 -0.12606117 0.43553513 -0.25033712 -0.30262977 -0.7571491 -0.7474936 0.13690655 0.2674254 0.65841514 0.42749184 0.071469545 -0.1809899 -0.19279759 0.48122096 -0.32784766 0.5251226 -0.04812072 0.21493231 -0.888679 0.12423311 -0.2548343 0.16175596 -0.3216623 0.17035998 0.14764129 -0.07247759 0.15382144 -0.56366456 0.23859434 -0.093872264 -0.35167357 0.28079593 -0.014144494 -0.14310034 0.14568308 -0.6552931 0.39415482 0.22052251 0.056847367 0.1529341 0.07852533 0.38143992 0.05864846 -0.67903346 0.15971936 0.20693661 0.21792176 0.15773761 -0.063789375 0.19650613 0.419601 -0.12183349 0.45277962 0.016133564 -0.52760506 -0.0819983 -0.38684052 0.18149379 0.37612298 -0.050807044 -0.47472408
462 0.3265602 -0.66566026 0.1828603 0.26422977 0.012218752 -0.06582963 0.2035008 0.49488175 0.2013241 0.09551391 -0.01960469 0.2563206 -0.17727403 -0.19545825 -0.1601022 -0.38526538 0.32161117 -0.31302935 -0.38653553 0.07188922 0.293891 0.14198665 -0.05526148 0.11117337 -0.032717902 0.15356082 -0.40065706 0.056644112 0.10209553 -0.16184804 -0.33539575 -0.24235108 0.5379169 -0.09505373 0.028924538 -0.048352376 -0.49957907 0.0029802138 0.25763938 -0.20732643 -0.3389329 -0.38980252 -0.34095776 -0.034197375 0.15296137 -0.42028758 -0.5581417 0.16104154 -0.15983523 0.033136237 -0.33885348 -0.07044904 0.25298807 -0.020318972 0.21230195 0.35074392 0.18735363 0.12825762 0.17216183 0.13344558 -0.19662154 -0.11993112 0.108587846 -0.3281966 0.04938804 -0.29113176 0.08674718 0.54821557 0.35240608 -0.12796307 -0.015272306 0.050828382 0.10622321 0.18273818 0.19312733 0.3090489 0.3261839 0.19235675 0.13241749 0.302539 0.3578084 0.27240008 0.2683578 -0.17761965 0.006203954 -0.64838606 0.3332265 0.07499188 0.6702582 -0.4661797 0.18857107 -0.22216435 -0.015446747 0.25294623 -0.35764638 0.044425435 -0.94542974 0.17059071 0.40993646 -0.15446301 -0.19773461 0.3546233 -0.12819967 0.0076328213 0.50173056 -0.01736776 -0.25322986 -0.5000821 -0.13671105 0.40552193 0.19227423 0.32435808 -0.06451291 -0.24753928 -0.5089116 0.027134642 -0.3433069 0.17399605 0.082744546 0.019546654 0.87810135 0.26086903 0.075677395 -0.06667076 -0.105883054 -0.133385 -0.26980564 -0.25896972
551 0.19030783 0.4680306 0.117110156 -0.10668 -0.4174892 0.0972019 0.09153124 -0.17451476 -0.13397813 0.12183789 0.12581477 0.54200345 -0.13579088 0.2213769 0.18216947 0.21438447 0.5048506 0.03449587 0.177485 0.23843037 0.10836658 -0.12769091 -0.13429716 -0.03921406 0.8327681 -0.050662085 -0.11376229 -0.19783886 0.042556413 -0.37137115 0.12719001 -0.28296193 -0.14283757 0.084875055 0.37772167 -0.27377415 -0.21685441 -0.07425052 0.2770158 0.05826519 0.10121349 0.0057707205 -0.29439262 -0.2414471 0.0072485697 0.4747776 -0.0030356993 0.24057512 0.3586493 -0.09106101 -0.053933535 -0.014729405 0.58024836 0.045262694 0.024370555 0.3535962 -0.074234985 -0.10268515 0.010925099 -0.20620048 0.00971158 0.222822 0.09391725 -0.09393606 -0.27780053 -0.25113314 -0.24816532 0.011947367 0.29688516 -0.14737636 -0.43112683 0.27864563 -0.10105006 0.44076148 -0.030014772 0.028789045 0.48480564 0.36171374 -0.0457326 0.039936334 0.27752358 0.018070016 -0.09831861 -0.13075884 0.06379566 0.15628967 0.42282894 0.21614146 0.12495879 -0.021487286 0.017387468 -0.14527091 -0.180477 0.00842529 -0.056930467 0.15198922 -0.3626904 -0.17946513 0.17569977 -0.14393672 -0.22934863 -0.18846576 0.061381843 -0.1877191 0.41622275 0.22314103 -0.32142448 -0.15602921 0.19229418 0.30122536 -0.2439996 0.07337887 0.3587806 -0.28680542 -0.35690078 -0.05743668 0.05225609 0.32692888 0.26443356 -0.053836092 -0.4648868 -0.04759772 0.5747089 -0.020696517 -0.26419425 0.14924653 -0.23379633 0.114610024
223 0.20369549 0.3319795 0.1480811 -0.08797898 -0.530438 0.01888588 0.0964082 -0.14169659 -0.22385338 0.22031467 0.11343808 0.55012345 -0.122766845 0.3406845 0.030784976 0.19224814 0.40523502 0.034181077 0.14654878 0.31378332 0.108574264 -0.14823695 -0.10423261 -0.038517956 0.8638633 0.06321692 -0.077846475 -0.20833798 0.082705125 -0.34154883 0.14342429 -0.22942874 -0.1539508 0.15922202 0.35576084 -0.38002783 -0.27431414 -0.05372486 0.35993147 -0.083677225 0.024342012 0.06095972 -0.211788 -0.1510776 0.03197167 0.4396693 0.06781056 0.19298765 0.3363612 -0.04697837 -0.07297352 -0.13109781 0.52633214 0.008928756 0.0795542 0.43956402 -0.06638123 -0.13790177 0.0741682 -0.24433452 -0.05112683 0.25494888 0.09551798 -0.113659345 -0.30591336 -0.23188116 -0.3080671 -0.0054429914 0.37442127 -0.23828757 -0.4127909 0.21780854 -0.036741816 0.38285956 -0.08404324 -0.14524128 0.506513 0.28171337 0.01086193 0.05722366 0.32403108 0.1719927 -0.07191643 -0.18369699 0.089127116 0.20046927 0.41778997 0.28499988 0.1426996 0.014284431 -0.03057209 -0.320016 -0.13316502 -0.04849114 0.07124201 0.12348842 -0.35171115 -0.27932483 0.17749752 -0.23968881 -0.16079108 -0.09931479 0.07733303 -0.14833851 0.38470024 0.22050534 -0.28852028 -0.16635954 0.15945156 0.25836024 -0.32535324 0.061038155 0.39241764 -0.22961384 -0.34929857 -0.10649439 0.00090575183 0.33786568 0.3120518 0.030754354 -0.53194076 -0.12277356 0.5450507 -0.05609731 -0.26778385 0.23799293 -0.315032 0.008668511
875 0.3428719 -0.61268216 0.268718 0.2994741 -0.013176574 -0.045574 0.1821669 0.49340507 0.15624072 0.08906603 -0.026509576 0.32830986 -0.15469255 -0.28177264 -0.117828086 -0.27805445 0.31191868 -0.36184266 -0.48400497 0.12476116 0.32482582 0.21299006 -0.118556745 0.103188105 -0.055776913 0.19125503 -0.39115345 0.07178684 0.09105694 -0.18810448 -0.28481764 -0.09828156 0.5688281 -0.19489186 0.061954558 0.058441944 -0.50373995 0.06713759 0.2725311 -0.16576885 -0.3384604 -0.3223541 -0.30712005 0.024750922 0.17811556 -0.3291347 -0.52758723 0.11985045 -0.17875113 0.06554387 -0.23151274 -0.034225006 0.27299562 0.0047134026 0.23465244 0.34409156 0.21158604 0.07146673 0.15450831 0.11524735 -0.22470433 -0.08874459 0.1220944 -0.3744328 0.020876218 -0.30057177 0.07447303 0.55712116 0.33938268 -0.054945644 -0.05005566 0.030630283 -0.017456146 0.2438641 0.104827456 0.3412971 0.3959258 0.14727134 0.16685246 0.2795234 0.37285247 0.28207868 0.28814325 -0.18572167 0.033864204 -0.5971152 0.374287 0.11632805 0.6068373 -0.52206624 0.24124677 -0.14505328 -0.009442245 0.13547197 -0.39106044 0.10438738 -0.951545 0.18478692 0.42067564 -0.22484347 -0.24275517 0.29609203 -0.17497742 -0.005779882 0.5049085 -0.0402719 -0.34459054 -0.53141165 -0.14004056 0.36650604 0.25163156 0.36210757 -0.058879167 -0.2666384 -0.42920002 0.047873754 -0.40936407 0.15146457 0.104280256 0.048136238 0.85124993 0.28301826 0.11743504 -0.11401891 -0.16163802 -0.15486117 -0.28706202 -0.21771543
138 0.06927279 -0.6123604 0.45789367 0.07089064 0.16265072 -0.020726271 0.54932195 0.22975992 0.3329021 0.2420745 0.6919868 -0.17971577 -0.25960955 -0.090499 0.3038978 0.11092941 0.294307 -0.050215486 0.27837345 0.020573024 -0.24832094 -0.41709894 0.16361915 -0.19811812 0.21836473 0.006558178 2.3266653e-05 -0.4989588 0.3579577 -0.21276698 -0.6055719 -0.62940836 0.15328099 0.20787603 0.10436683 0.36873463 0.20315647 0.05186852 0.029121751 -0.12786457 0.1588181 -0.5331555 0.09651408 -0.36157924 0.20953843 0.5568577 -0.02570214 0.05209451 0.3157483 0.082127534 0.14454183 -0.5702748 0.1862105 -0.49086928 -0.0003976069 0.18677418 -0.3558371 0.059042435 -0.34677455 0.022939589 0.11652458 -0.017800149 -0.07626807 0.088778734 0.32924125 -0.70659953 0.2941245 0.038792744 0.56254256 -0.33134922 -0.32887578 -0.7365218 -0.72676873 0.16781665 0.41073996 0.5398153 0.22424749 -0.061068468 -0.15201804 -0.39640486 0.59859776 -0.179288 0.52767026 -0.10560768 0.4260274 -0.84138536 0.11189011 -0.21129087 0.18408734 -0.18527114 0.07477861 0.13308732 -0.009447461 0.18400256 -0.55594426 0.209519 -0.29077244 -0.29836154 0.13750125 0.041024536 -0.31165218 0.19480519 -0.72203624 0.4264976 0.372979 0.2262612 0.17293422 -0.22017995 0.54163176 0.14965422 -0.6261318 0.105522014 0.1279151 0.20643601 0.20072718 0.10335057 0.2610425 0.39358222 -0.071154565 0.39764312 0.18002124 -0.5301471 -0.1549213 -0.29099205 0.2742347 0.5157638 -0.03545704 -0.30560082
233 0.4431861 -0.6587364 0.4509522 0.31096599 0.01749832 -0.08677599 0.29059643 0.44608408 0.20870647 0.05110853 0.4087225 0.5232274 -0.03818625 -0.03695859 -0.1301866 -0.3578493 0.35250637 -0.23024458 -0.37277925 0.054959226 0.06357461 0.09874291 -0.029219538 0.15470597 -0.16283765 0.052758355 -0.52560925 0.19118023 0.0860607 -0.11591687 -0.17918292 -0.053630963 0.6976597 -0.048676934 0.11618029 -0.17026924 -0.6231835 0.10656439 0.2549501 -0.035472192 -0.2822629 -0.55728334 -0.5095373 -0.036328968 -0.081588745 -0.42424023 -0.5530153 0.27775574 0.035560396 0.048389662 -0.35854274 -0.28135157 0.08739941 -0.16146764 0.40226814 0.29459557 0.26388755 0.25821722 0.19097967 0.13421887 -0.15834096 -0.012740979 -0.03791577 -0.32407963 0.007024773 -0.29120576 -0.37873256 0.48374072 0.3872001 -0.2060833 -0.03220878 0.037187625 0.24050143 0.22771233 0.101959996 0.41475192 0.26674977 0.36779344 0.1826122 0.5618255 0.20015459 0.23824108 0.04945638 -0.31119758 -0.13624904 -0.35344076 0.14417137 -0.054163903 0.7567175 -0.62124735 0.18990998 -0.0022576968 -0.2449654 0.22350384 -0.1146431 0.030052494 -0.99167687 0.21971394 0.32194248 -0.1951494 -0.029018996 0.22161129 0.06421624 0.032573357 0.531327 -0.08423513 -0.16601908 -0.3539636 -0.22167756 0.36836758 -0.14820297 0.3265317 -0.0023983202 -0.24332796 -0.49538305 0.16588657 -0.5543877 0.028625404 -0.14950372 0.30941093 0.6095356 0.35164946 0.26273972 -0.15118 -0.21816643 -0.35860452 -0.092795834 -0.46910417
325 0.13418646 -0.5584603 0.48872033 0.021250976 0.23491324 -0.13206224 0.48210084 0.1677237 0.28371465 0.27343118 0.7859999 -0.11467421 -0.1347695 -0.09437097 0.34654382 0.16427489 0.3430931 -0.0028663825 0.27127537 0.01699033 -0.2224014 -0.5334505 0.13997468 -0.13269623 0.2187808 -0.03731573 -0.026800854 -0.4861828 0.3483124 -0.25126597 -0.679984 -0.7055356 0.19570126 0.15048611 0.20546727 0.3474164 0.09606021 0.011496563 0.012770312 -0.030426702 0.123984486 -0.64455277 0.054003265 -0.3449624 0.18488184 0.4540958 -0.0895695 0.016204169 0.35051155 0.061167132 0.03949425 -0.60145384 0.14849451 -0.5500697 -0.0019061262 0.2017249 -0.22945534 0.087122284 -0.24376272 -0.025273044 0.17105313 0.016619546 -0.081357345 0.028687501 0.36791196 -0.6613194 0.24408945 0.022157306 0.5001816 -0.4152271 -0.34163275 -0.7298738 -0.665216 0.12424845 0.43767026 0.5240423 0.2756378 -0.039030567 -0.15173194 -0.34804103 0.5023745 -0.20959772 0.50210947 -0.10815991 0.4155318 -0.8896787 0.1123509 -0.31216195 0.20841677 -0.2017428 0.18150106 0.19530351 -0.040257055 0.18749034 -0.48987526 0.22562112 -0.21622975 -0.29229736 0.1484947 -0.03170976 -0.3040746 0.15984082 -0.7720567 0.33728167 0.29174557 0.18950573 0.23450655 -0.13714196 0.44553465 0.119620636 -0.65812373 0.11819107 0.17019801 0.29519448 0.16501832 0.006275987 0.22913688 0.30037245 -0.03384717 0.36935648 0.039367486 -0.46046135 -0.093025915 -0.28340745 0.28881234 0.5801299 -0.0540395 -0.33679384
577 0.37343237 -0.56779987 0.26056382 0.23026858 -0.0057869037 -0.11515497 0.20269383 0.48779914 0.09917957 0.12552282 0.006420328 0.3801948 -0.19791348 -0.34554353 -0.045878764 -0.33121982 0.31040984 -0.37527072 -0.44156143 0.11347433 0.3567989 0.10347479 -0.10272431 0.048334237 -0.0652699 0.17014611 -0.405396 0.052078564 0.042958617 -0.13882336 -0.2941708 -0.24442784 0.54743797 -0.03653024 -0.082187206 0.008271318 -0.47866622 -0.053042755 0.30731592 -0.16887368 -0.31115675 -0.37437248 -0.35008872 0.026889855 0.17665972 -0.42522225 -0.52169293 0.13711229 -0.2877979 0.05863123 -0.17939185 -0.031974114 0.22180666 0.0054803793 0.16191609 0.33171543 0.14669403 0.082159184 0.1937093 0.18016377 -0.17718436 -0.10287854 0.111861564 -0.3599427 0.17137149 -0.24987508 0.01735056 0.50029147 0.41582426 -0.12918702 -0.043328032 0.0329261 0.10884442 0.2809864 0.12279486 0.36952403 0.40466353 0.11516062 0.067199774 0.27749908 0.43768147 0.4100744 0.28654894 -0.27943105 0.0037323663 -0.7075236 0.34372216 0.08680417 0.6121269 -0.5348327 0.21260549 -0.15319744 -0.058613077 0.22993357 -0.40640137 0.02374184 -0.9223884 0.19688056 0.38412243 -0.26955277 -0.18400958 0.33953285 -0.19408727 -0.033282857 0.37206575 -0.029323183 -0.23562834 -0.43504974 -0.12889569 0.32732525 0.28842354 0.324351 -0.12539913 -0.21183768 -0.531405 0.09158721 -0.30865034 0.10987586 0.18750285 0.028716214 0.8298153 0.3149119 0.04047921 -0.084698334 -0.03483145 -0.051439036 -0.24693781 -0.2682537
221 0.31251568 -0.5899214 0.5002161 0.18542893 -0.16020297 0.115857095 -0.090532154 0.2830909 0.36755636 -0.2730513 -0.5334035 0.33447504 0.09984337 0.39289936 0.54651433 0.24142861 0.4341218 0.43732822 0.073445685 -0.13391012 0.61759764 -0.40781128 0.41383186 -0.36749405 0.6259965 -0.15141927 -0.28033414 -0.6808367 -0.0628705 -0.38520896 -0.2917587 -0.22702351 -0.010907076 -0.40902638 -0.13566205 0.05513017 0.1482277 0.0018796858 0.4614269 -0.31901485 -0.08489087 0.094326794 -0.37500933 0.118473336 0.05376719 -0.1835522 -0.5565081 -0.49483025 -0.118123144 0.17949106 -0.12242861 -0.05351613 -0.35832977 0.026314903 -0.29866874 0.18396004 0.3272845 -0.3018144 -0.49904954 0.4228045 -0.21680103 -0.08542881 0.050841227 0.5797026 -0.53440386 -0.3691939 -0.24698909 0.14838134 0.03830286 0.53273815 -0.32252604 -0.5337143 0.054070007 0.41361946 -0.0030022222 0.40633476 0.24104413 -0.22737901 0.18023257 -0.34132433 -0.057227604 0.45411363 0.28679818 -0.24854694 -0.42634842 -0.67999494 -0.48987564 -0.06436398 0.3173562 -0.04115804 -0.22925921 0.49506024 -0.14300543 -0.2234946 -0.42850724 -0.15276794 -0.28548336 0.047647156 -0.009472425 0.016984139 0.08360101 -0.0020717771 -0.32500625 0.59482545 -0.15739927 0.2424858 -0.13357747 -0.3897956 -0.32475597 0.23370674 0.28913224 0.31278148 0.28357157 0.30634135 -0.10854682 -0.054671958 -0.06731457 0.36993968 0.18894157 0.18794923 -0.540423 0.4957456 1.0571532 -0.2894666 -0.16374788 0.22245346 -0.51786876 -0.2271738
539 0.21728759 -0.5240799 0.47741786 0.14188834 0.21480216 -0.10392192 0.41009957 0.10912772 0.28457856 0.41034722 0.84138876 0.04820896 -0.17853162 -0.11289408 0.3324702 0.2695994 0.45541564 -0.017688189 0.18955803 -0.12183693 -0.17690831 -0.37156639 0.26449326 -0.20296572 0.17401437 -0.08599159 0.08836183 -0.46715742 0.33834675 -0.1832031 -0.637297 -0.58872664 0.3806345 0.088810064 0.113644816 0.3594051 0.11744857 -0.008764812 -0.04301862 -0.098473795 0.17645521 -0.6419351 0.06301397 -0.31937584 0.07354359 0.4694829 -0.23867719 0.050601803 0.17298242 0.21224825 -0.0032478813 -0.48170725 -0.014554458 -0.4759442 -0.09542253 0.19885042 -0.297929 0.014130906 -0.1877241 0.015897814 0.19989465 0.21883108 -0.024216037 -0.052580778 0.38544133 -0.70361435 0.15590486 -0.16439478 0.5062631 -0.25108185 -0.32960168 -0.6739675 -0.7109833 0.078211606 0.23411722 0.65341204 0.35743126 0.048004687 -0.2806625 -0.23229927 0.5165084 -0.26844254 0.45478675 -0.1799127 0.3310957 -0.81413174 0.06682619 -0.3163575 0.1795131 -0.32836142 0.18730204 0.09489043 -0.044465914 0.13265751 -0.55330044 0.21742932 -0.16597989 -0.28610697 0.19120038 -0.048406664 -0.18020804 0.15152487 -0.634683 0.33663046 0.15521744 0.12206074 0.15859537 0.046200503 0.45352814 0.03702166 -0.7048934 0.13197894 0.17088282 0.24170543 0.066775486 0.0101405885 0.27440995 0.40008265 0.02408743 0.36641803 -0.009417041 -0.4529102 -0.11642341 -0.356532 0.2782671 0.5459574 -0.018247627 -0.47300714
962 0.11485485 0.25334266 0.32170668 0.38699102 -0.115483 0.0914343 0.2001864 -0.12661661 0.45187646 -0.16988799 0.067352325 0.04028071 0.24263926 0.07184942 0.04584558 0.046202216 0.12774824 -0.22628099 -0.1517227 -0.194741 -0.05629164 -0.32995042 -0.15979402 0.119751416 0.21058403 -0.12697501 -0.27895975 -0.3520906 0.12503913 0.062165495 -0.4517886 0.45428944 0.0171946 -0.15462995 -0.1956015 0.18675087 -0.13915205 0.18438593 -0.1484614 -0.23341246 0.2330449 -0.4147761 -0.023783999 -0.26204637 0.13519861 -0.044126242 -0.440797 -0.051051717 0.2345302 -0.18126617 -0.20687708 -0.006643039 0.040662926 0.052758623 -0.19210066 0.018928062 -0.098422185 -0.13977174 -0.29046124 0.032188263 0.1401647 0.30022547 0.16979383 0.2526558 -0.41193932 0.16575538 -0.07134951 0.08557268 0.13494672 -0.26669377 -0.18761088 -0.0077046826 0.2576146 0.036489442 0.092438 0.32896316 0.00067008997 -0.2836078 -0.026029812 0.09200041 0.4693894 0.2502932 0.20335974 -0.022502376 0.01167092 -0.18304951 0.28608462 -0.17457958 -0.24380863 -0.3031974 0.06824035 -0.32529014 0.17784192 0.20974292 0.079558745 0.02213039 -0.02816664 -0.08914683 -0.18742166 0.045410786 -0.18801126 0.27741796 0.31665862 0.40922534 0.102583334 0.142958 0.014316326 -0.030615153 -0.23105545 -0.16819443 0.13730715 -0.24436387 0.3390586 -0.3018082 -0.092260875 0.25061926 -0.43911898 -0.17722064 0.07032072 0.0030240207 -0.23614568 -0.10672818 -0.19612609 -0.06979916 0.00012856409 0.27605265 -0.3185602 -0.0031395573
376 0.24847008 0.35573292 -0.3825275 0.0057787932 -0.23455729 -0.09317809 0.37174776 -0.25715345 0.20574911 -0.0074099996 0.326594 0.39053962 -0.1478647 0.2680196 -0.21990089 -0.05634404 0.12908256 0.10271742 -0.011044394 0.41728023 0.21429004 -0.13879931 0.26587614 0.0944346 0.31072375 -0.0885213 -0.111494206 0.11086984 0.13791615 -0.15347475 -0.03478419 -0.21767846 -0.34773034 0.022181822 0.26446554 -0.14821903 -0.076468624 -0.15866683 0.61382496 -0.079344206 0.14809053 -0.12059254 0.052888844 0.06025693 0.1249441 0.07832042 0.1983436 0.059199464 0.19952099 -0.35205647 0.01766263 0.061749317 0.3658194 0.053561624 -0.17249799 0.28515354 -0.36038986 -0.21712756 -0.19257095 0.078764275 0.0769673 0.4210985 -0.2822206 0.09551714 -0.008974467 -0.18943192 -0.085578166 0.23093586 0.49272764 -0.046046317 -0.079976074 -0.08792573 -0.044945426 0.169262 -0.12675808 0.19180325 0.4679043 0.3362646 0.31365725 0.31396157 0.28652012 -0.09827492 -0.13171498 -0.23654622 -0.113628924 -0.03059975 0.11655283 0.045681812 0.14199948 -0.116126165 0.1254446 0.10091056 0.032404654 0.1694426 -0.1821065 0.16095476 -0.47013956 -0.3192974 0.11187505 -0.11988847 0.057818424 -0.21136595 0.14556438 0.3231775 0.20370139 0.34152445 -0.1959391 -0.18468687 -0.01713122 0.28184074 -0.32992417 -0.06778061 0.5398966 0.0077355057 -0.35082263 -0.18360528 0.2448118 0.22046262 0.4105402 0.047454022 -0.44243768 0.10760136 0.45117247 -0.049663227 -0.32487613 -0.106265016 -0.008213831 0.14245316
514 0.24129492 0.32680094 0.09298605 -0.064458564 -0.47452363 -0.08216152 0.06549615 -0.113276415 -0.19872956 0.19660366 0.122081004 0.5919453 -0.10959093 0.37322456 0.22744188 0.21157442 0.39189819 0.047806825 0.22278102 0.43389365 0.090256914 -0.2476546 -0.010448236 0.06568939 0.90405965 -0.075818405 0.011956537 -0.35650903 -0.006750584 -0.3293846 0.18612166 -0.2897912 -0.20235938 0.19970869 0.41355422 -0.2804282 -0.29421735 -0.103994586 0.28027037 -0.055238426 -0.017858548 -0.025228307 -0.2727437 -0.3078278 0.03763598 0.3626491 0.023527822 0.16425405 0.2643392 -0.17804547 -0.056782644 -0.06438824 0.5394578 0.061459087 0.08592674 0.3259912 -0.091392145 -0.07797988 -0.036506582 -0.2624733 0.033795197 0.2540625 0.1413071 -0.088731155 -0.26675892 -0.25720447 -0.23277874 0.05597069 0.362 -0.21929139 -0.46469402 0.23679581 0.060971532 0.39905027 -0.00930113 0.049142353 0.5466133 0.3864119 -0.030396812 0.12880199 0.27675915 0.12796353 0.024444545 -0.107896656 0.07820251 0.14731418 0.46074006 0.36002082 0.11415133 -0.010159229 0.03761589 -0.3155296 -0.06647321 -0.035493765 0.06785133 0.068118155 -0.32375118 -0.2540888 0.18300335 -0.2602204 -0.11972068 -0.1770364 0.20547822 -0.20814046 0.2920098 0.28067648 -0.3710668 -0.05304532 0.14559442 0.24341877 -0.28724238 0.080777876 0.36843446 -0.2770917 -0.457517 -0.10764442 0.04773402 0.26572534 0.2691143 0.09145098 -0.48400345 -0.1780705 0.5644389 -0.09719759 -0.38330632 0.24897905 -0.29651192 0.15219657
732 0.007884064 -0.7866167 0.38058996 0.13893971 -0.121876135 -0.11027679 0.5263041 0.14600782 -0.0044368114 0.3329469 -0.16847868 0.4076629 -0.47331724 -0.121643685 -0.23365803 -0.02152762 0.18515448 -0.5541426 -0.23742414 -0.06419398 0.3941792 -0.19887629 0.3194842 0.3381299 -0.21086824 0.57605696 -0.4325327 -0.22101977 -0.16472073 0.098046616 0.0405303 0.00017346677 0.39271334 0.0048011425 -0.2643745 -0.6228613 0.04980711 -0.11304494 0.1329057 -0.76144516 -0.08300499 -0.4768538 -0.070250794 -0.033784896 -0.12411819 0.0022074364 -0.2857157 -0.3000016 -0.071397714 -0.08267222 -0.4400862 -0.017443616 0.15083513 0.24284068 0.035638317 0.5435274 0.42936486 0.08919204 -0.25669864 -0.0554385 0.0823748 -0.08201197 -0.08228013 0.070851326 -0.18044268 -0.40233594 -0.36015937 0.36990076 0.6173843 0.22169703 -0.294809 0.055518366 0.028494896 0.41767457 0.11561009 0.8307825 0.36470732 0.44617012 0.53520054 0.4428251 0.3111044 -0.06783485 0.13362637 -0.35158685 -0.29043204 0.007747072 0.2635228 -0.23224607 0.38237154 -0.0745768 0.41981634 0.14725307 -0.34528017 -0.10323535 -0.081327006 -0.039907403 -0.978513 0.4475001 0.9098099 -0.21563374 0.14075074 0.14211932 -0.32605124 0.009316694 -0.09288251 -0.22912855 0.13087638 -0.19172879 -0.14745769 -0.23695476 0.24701616 0.257487 0.18765807 -0.15656084 0.072296284 0.19021083 -0.38295802 0.08789616 0.20326185 0.15321183 0.32603043 0.06622817 -0.2763482 -0.43195933 -0.42440504 0.048916735 -0.18968143 -0.11306294
855 0.018088704 0.19660847 0.2080515 0.29130524 -0.10756605 0.12261774 0.12916964 -0.09959262 0.5102978 -0.21071847 0.04101235 0.019942163 0.19753513 0.043685403 0.03550611 0.015509172 0.079038 -0.13921803 -0.07610259 -0.27924898 -0.105890326 -0.36287326 -0.08917474 0.069702916 0.13685414 -0.12414118 -0.29346856 -0.36385396 0.12544344 0.027061794 -0.4122365 0.39617574 0.07515115 -0.20718588 -0.1883923 0.08508366 -0.11919224 0.16006055 -0.22395141 -0.15141188 0.24570039 -0.4313484 -0.037815418 -0.29889387 0.09545705 -0.029574377 -0.47283894 -0.031945106 0.2857405 -0.08527764 -0.21180983 -0.007258711 0.004477856 0.06642547 -0.22785717 0.013154277 -0.13968922 -0.07114646 -0.24339321 0.044773508 0.20229647 0.32985643 0.16875196 0.20550348 -0.3780995 0.15949875 -0.075046584 0.07174979 0.14674269 -0.2987484 -0.238958 -0.014137304 0.2646745 -0.0007527599 0.07012438 0.3661477 0.05433989 -0.22125989 -0.04693483 0.10985403 0.51603615 0.27567616 0.17087546 -0.021523068 0.016104506 -0.12275842 0.2997366 -0.1686397 -0.22996593 -0.3156823 0.043370727 -0.3669004 0.2258481 0.25584194 0.06883659 0.0035232739 -0.02656966 -0.06939036 -0.1556142 0.06901404 -0.23122947 0.28942156 0.25665018 0.41330832 0.13511378 0.15277514 0.06694296 -0.11570087 -0.23257482 -0.12641665 0.14994414 -0.24024625 0.4255369 -0.30302668 -0.07065576 0.30403754 -0.40827534 -0.18842034 0.07146029 -0.07849937 -0.2772123 -0.022474112 -0.1313281 -0.098998874 -0.031381615 0.28558543 -0.33663437 -0.022606747
488 0.28479952 -0.32131606 -0.30941072 -0.2027992 -0.12763944 0.03991087 0.039805762 0.30940282 0.26765165 -0.19272892 -0.41372377 0.34632644 -0.3498054 0.29729137 0.41389945 -0.022246702 0.3202326 -0.06368174 0.19721663 0.044814587 0.1891488 -0.29903728 0.2332354 -0.066441774 0.6827609 -0.41787335 -0.48707536 -0.6980325 -0.024335222 -0.40654418 -0.30664057 0.21420759 -0.13390248 -0.4720252 -0.4969137 -0.16086137 0.13921511 0.15092607 0.48595262 -0.56532246 -0.13104959 -0.33381528 -0.510215 -0.15716575 -0.02097938 -0.3989055 -0.5477478 -0.57739437 0.09296113 0.18627863 -0.08920472 -0.50513375 -0.15296319 -0.03711804 -0.10094808 0.48934427 0.25478703 0.14361484 -0.3921961 0.58563757 -0.19437419 0.29298678 -0.0831476 0.13765493 -0.46806106 -0.28267726 0.02677229 0.21145245 -0.21616556 0.6110758 -0.064147286 -0.46056697 -0.0069514713 0.20228809 0.35721576 0.49173382 0.02924231 -0.21870464 0.12770718 -0.30487865 -0.090087056 0.33335713 0.34471542 -0.07611749 -0.37253034 -0.740941 -0.5492076 0.11456442 0.41036594 0.056063354 -0.121747166 0.3750079 -0.39488432 -0.25040975 -0.30200157 0.24552524 -0.3336919 -0.0153797995 0.18770462 -0.05386331 0.039584436 0.2260848 -0.5943357 0.86752355 -0.47492373 0.017966133 -0.25001633 -0.2589878 -0.3705495 0.26397663 0.3495685 0.35883954 0.017317897 0.18428339 0.038884565 0.25065917 0.37643832 0.5756107 0.26852927 -0.11388948 -0.6088977 0.26268247 0.6177638 -0.4727847 -0.18858555 0.04199193 -0.49237388 -0.25702986
89 0.030489665 -0.65737355 0.416364 0.07849673 0.12647101 -0.06627606 0.48121676 0.19409616 0.24341702 0.22913717 0.7957149 -0.10056537 -0.2275535 -0.07818035 0.26448074 0.16766201 0.30284277 -0.05787177 0.29710445 0.010617672 -0.28236493 -0.42341572 0.15582432 -0.15088947 0.24030693 -0.04321179 -0.07544113 -0.4830105 0.3613428 -0.18519406 -0.66072947 -0.59212065 0.1822569 0.1956921 0.14418368 0.37878302 0.12946993 0.092580706 0.0038231895 -0.044151694 0.10258151 -0.46158087 0.027093578 -0.36046064 0.13230057 0.47302374 -0.13105212 0.091998436 0.30084944 0.04645867 0.085991025 -0.63781434 0.2388649 -0.5648518 -0.09960195 0.21141794 -0.37896618 -0.0010589461 -0.21309197 0.0015481418 0.18821576 -0.010260763 -0.060561508 0.17733938 0.30813628 -0.6790707 0.19466498 -0.06781742 0.44999394 -0.23398307 -0.2492558 -0.75922567 -0.6847678 0.08511339 0.43540528 0.5763967 0.2874391 -0.020837342 -0.10254586 -0.2892284 0.54102916 -0.26571935 0.53974414 -0.07922032 0.3641348 -0.7945405 0.070970915 -0.18564965 0.13427345 -0.20386843 0.19182768 0.0046607205 -0.08813436 0.21449211 -0.44643605 0.3257331 -0.24931866 -0.35492086 0.14671983 0.09633615 -0.2649359 0.15797627 -0.6812542 0.43621475 0.3237604 0.2483737 0.19269952 -0.08929331 0.48444313 0.12778026 -0.6957571 0.108522736 0.11794052 0.23331822 0.23468745 0.08053573 0.21455558 0.2968655 -0.058451418 0.38089415 0.09557016 -0.50984216 -0.04955547 -0.19239931 0.3174624 0.5361784 -0.056178924 -0.3552681
400 0.43892744 -0.7417095 0.38202012 0.2988862 0.02788942 -0.140165 0.23054348 0.39102566 0.09647017 0.15148725 0.21559891 0.55511373 -0.056766752 -0.13668531 -0.17847934 -0.35234255 0.3823255 -0.28441155 -0.38724664 0.15269212 0.09782687 0.050207116 0.012424318 0.118239105 -0.17502348 0.16272601 -0.6072531 0.11094665 0.060137477 -0.15942268 -0.25664648 -0.076879665 0.5576583 0.03427479 0.024166867 -0.17891064 -0.63513964 0.062276144 0.11959262 -0.070132606 -0.28450924 -0.32225668 -0.51000226 -0.08411381 0.035490736 -0.43231598 -0.5396299 0.2441129 -0.084708326 -0.055503465 -0.29363462 -0.24691495 0.19932126 -0.11597023 0.26475826 0.35239008 0.264538 0.20783882 0.21525949 0.14172897 -0.16691272 -0.13930078 -0.05229856 -0.20781668 -0.019454645 -0.4298866 -0.2524394 0.37174243 0.3589866 -0.09469235 -0.0330359 -0.062428575 0.23258464 0.12522975 0.16187476 0.4388356 0.30737585 0.34215444 0.11327335 0.49161214 0.2964787 0.2800998 0.17390476 -0.2776276 -0.13816406 -0.42828214 0.31299102 -0.030379301 0.6398024 -0.53808993 0.24319963 -0.1644258 -0.117486194 0.19891827 -0.03712046 0.10450011 -0.97981083 0.17985818 0.39167458 -0.1406156 -0.04594319 0.31393626 0.0073252744 0.09518286 0.4831691 0.06735848 -0.1074888 -0.3274425 -0.22474079 0.40499252 -0.069719814 0.32232466 -0.118259184 -0.24708164 -0.49477285 0.17863116 -0.44356567 -0.031161865 0.06685831 0.21202934 0.62415373 0.3380469 0.11915859 -0.078604035 -0.13505568 -0.29856935 -0.088465825 -0.38897225
337 0.21291527 0.26641458 0.13840882 -0.10644053 -0.45811707 -0.017267866 0.083055414 -0.12277183 -0.34790838 0.19604467 0.10455188 0.5728608 -0.16647488 0.31181404 0.056157634 0.16723004 0.35856593 0.1106877 0.11456235 0.42405796 0.046382945 -0.21304037 -0.023770986 0.035606194 0.7303043 0.018460691 -0.07886712 -0.24854463 0.024118464 -0.19577871 0.1646926 -0.21744005 -0.08927347 0.24572158 0.3025524 -0.2070986 -0.23708509 -0.0385612 0.31986392 -0.10366745 0.013816162 -0.03266842 -0.28148723 -0.19191778 0.06654132 0.40895516 0.105642736 0.17566842 0.21022992 -0.083259545 0.057915255 -0.19065802 0.4593651 0.07072153 0.10876638 0.33080077 -0.14275843 -0.07762773 0.095518254 -0.26622465 0.008366023 0.20924814 0.008490619 0.043081373 -0.28431347 -0.23390804 -0.37822735 -0.00370528 0.44445956 -0.30380103 -0.38318616 0.19120397 0.00716566 0.41699684 -0.079415455 0.0033853136 0.6653528 0.31621888 0.014019384 0.0976358 0.28454092 0.12603858 -0.03679351 -0.26248762 0.08965816 0.1638348 0.326531 0.3724739 0.10944233 0.07466251 -0.036663543 -0.39714497 -0.08504637 0.11792192 0.077514835 0.14561433 -0.41261032 -0.293438 0.17063883 -0.3101188 -0.17832582 -0.2268202 0.27272934 -0.13949041 0.24417923 0.25851196 -0.2926473 -0.030233692 0.10860722 0.2515989 -0.41235924 0.045649465 0.37455654 -0.17079866 -0.39230436 -0.06284581 0.06408778 0.1851183 0.2428748 0.10652727 -0.6001477 -0.12929788 0.5319817 -0.10145456 -0.21493928 0.15225337 -0.41607442 -0.025395801
104 0.21565117 -1.0433646 0.39637452 -0.0091033755 -0.633322 0.53628284 0.10846266 0.074788876 0.4568931 -0.03251345 0.48738572 0.31024095 -0.3305723 0.2501262 0.29091275 0.7926601 -0.012360567 -0.20190597 0.0001907764 0.20838192 0.19958849 -0.10739004 0.17349385 -0.32296035 0.18733676 0.39518595 -0.035223395 -0.1564731 0.424484 -0.09758747 0.10534093 0.35629514 0.31776544 0.0048946496 -0.010820732 -0.016836368 0.3053497 0.23288646 0.0600592 -0.30222574 -0.25390205 -0.6444783 0.18832172 -0.2486627 -0.16372532 0.30575988 -0.20566839 -0.36841357 0.29051554 -0.2952857 -0.075958796 -0.30504847 0.4204324 -0.61063427 0.0540769 0.33202013 0.19082116 -0.35120818 -0.33239767 0.121852554 -0.112839215 -0.1556469 -0.038162865 -0.31466705 -0.12816486 -0.093273714 -0.20108518 -0.28000364 0.094129175 0.17377554 -0.147415 -0.3258985 0.02053495 -0.2996234 0.63851786 0.21173501 0.2736507 0.622306 -0.49817136 -0.19226319 0.024608795 -0.020552022 0.17029296 -0.26941207 -0.10417375 -0.34457046 0.115339406 -0.4898317 0.39571297 -0.31012973 0.41807258 -0.22243357 -0.44865152 -0.065973416 -0.36299196 -0.058579694 -0.35535038 -0.33579287 0.09101834 -0.123250015 -0.15460643 0.4914558 -0.2084756 -0.12860559 0.26316625 0.25273454 0.048116736 0.48480937 0.44493043 0.017815314 -0.94610703 0.2533871 0.2392063 0.20443852 0.29850242 -0.15099019 0.30266502 0.42784077 -0.12632018 0.016720247 -0.47924182 -0.46721345 0.414966 -0.29847088 -0.03933341 0.72682565 -0.25866532 -0.32611808
272 -0.009686842 -1.1618208 0.8684649 0.38228047 0.0426417 -0.09583583 0.23036984 -0.036052823 0.42405057 0.24830054 -0.22215481 0.5569576 -0.6234451 -0.46771312 0.37456632 0.27537432 0.34799713 -0.6079418 0.01247092 0.20516466 0.562584 -0.13728762 0.396408 0.38372818 -0.046530325 0.484901 -0.27081203 -0.061553605 0.021039106 -0.17794581 0.005921078 0.08383923 0.44066542 0.14932345 0.0056446153 -0.7078711 -0.23633482 -0.1240258 0.2567992 -0.7330207 -0.29144645 -0.35053858 0.033666354 0.10381501 0.002311435 0.15778507 -0.19634956 -0.27114376 -0.08501681 -0.17237513 -0.75751454 0.010817877 0.2855589 -0.09953589 -0.31562442 0.51036114 0.30210045 -0.17572005 -0.2788338 0.10094043 0.2439037 0.060979187 0.1177037 -0.04994826 -0.04789289 -0.32864535 -0.17987752 0.12511332 0.36848786 0.21837665 -0.71559316 0.18735631 -0.07423513 0.16578136 -0.083869815 0.72365576 0.22367929 0.57901615 0.29733723 0.31580228 -0.0016173067 -0.11338854 0.20329927 -0.18656823 0.06051331 0.04352965 0.74270177 -0.16079977 0.54682696 -0.018640837 0.4315138 0.16461673 -0.12636392 -0.24609779 -0.042318705 -0.31638223 -0.99496275 0.5175425 0.6191691 -0.15247005 -0.09915687 0.2679351 -0.14270754 -0.11724761 0.23574872 -0.20760825 0.17719297 -0.0718286 -0.114250965 -0.17823851 0.7821539 0.31091985 0.38287574 -0.5019271 -0.13658927 0.025598008 -0.35177782 -0.19756307 0.28365913 -0.30018476 0.3869656 0.21168889 0.0071160397 -0.22537015 -0.3740997 -0.29528004 -0.32972878 0.10293627
186 0.15025508 -0.48589823 0.7068851 0.29138225 -0.28936136 0.18841279 -0.100008875 0.51866627 0.07355503 -0.10930402 -0.54702234 0.30179778 0.2879449 0.5434103 0.34160647 0.022168372 0.42992052 0.21621354 -0.03466902 0.012442843 0.34699208 -0.3216606 0.31177533 -0.32790843 0.560829 -0.18300226 -0.12676983 -0.61778206 -0.16501297 -0.35800245 -0.45540327 -0.15809268 -0.17883761 -0.40452233 -0.061091825 -0.003109121 0.29324996 -0.14648372 0.5098058 -0.41253477 0.08503722 0.19470997 -0.21679445 -0.013824239 0.062141813 -0.16005524 -0.5897678 -0.2931056 -0.27580234 0.18330918 0.15099056 -0.3165528 -0.28216237 -0.056168325 -0.50336695 0.23804449 0.29149023 -0.34510452 -0.42532614 0.40345976 -0.3171061 -0.10360153 0.01942597 0.35254186 -0.38413686 -0.30998212 -0.26426443 0.05390813 -0.30039462 0.047496397 -0.64085126 -0.7214927 0.049362525 0.4224684 -0.24112687 0.65019524 0.17310874 -0.23065653 0.10127238 -0.09270466 -0.044985022 0.46932903 0.35488552 -0.13112031 -0.25253016 -0.49957943 -0.33916858 0.029001718 0.19312409 -0.059992027 0.11912668 0.36827707 -0.31663814 -0.12257191 -0.23930724 -0.29445827 -0.5051154 -0.139541 -0.23100601 -0.044614617 0.20442887 0.23050193 -0.46945485 0.47277632 -0.23420568 0.47394323 -0.009120296 -0.59912145 -0.5072114 0.33735484 0.29860902 0.4582459 0.32187453 0.55173606 -0.13614875 -0.11338408 0.112045236 0.4252904 -4.6489153e-05 0.17444393 -0.56492615 0.3560688 0.9440393 -0.2446761 0.025821356 0.52116734 -0.78120387 -0.087780885
